{"learner":{"attributes":{"scikit_learn":"{\"_estimator_type\": \"classifier\"}"},"feature_names":["HR","O2Sat","Temp","SBP","MAP","DBP","Resp","BaseExcess","HCO3","FiO2","pH","PaCO2","SaO2","AST","BUN","Alkalinephos","Calcium","Chloride","Creatinine","Bilirubin_direct","Glucose","Lactate","Magnesium","Phosphate","Potassium","Bilirubin_total","TroponinI","Hct","Hgb","PTT","WBC","Fibrinogen","Platelets","Age","Gender","Unit1","Unit2","HR_roll_mean","HR_roll_std","O2Sat_roll_mean","O2Sat_roll_std","Temp_roll_mean","Temp_roll_std","SBP_roll_mean","SBP_roll_std","MAP_roll_mean","MAP_roll_std","DBP_roll_mean","DBP_roll_std","Resp_roll_mean","Resp_roll_std","BaseExcess_drawn","HCO3_drawn","FiO2_drawn","pH_drawn","PaCO2_drawn","SaO2_drawn","AST_drawn","BUN_drawn","Alkalinephos_drawn","Calcium_drawn","Chloride_drawn","Creatinine_drawn","Bilirubin_direct_drawn","Glucose_drawn","Lactate_drawn","Magnesium_drawn","Phosphate_drawn","Potassium_drawn","Bilirubin_total_drawn","TroponinI_drawn","Hct_drawn","Hgb_drawn","PTT_drawn","WBC_drawn","Fibrinogen_drawn","Platelets_drawn"],"feature_types":["float","float","float","float","float","float","float","float","float","float","float","float","float","float","float","float","float","float","float","float","float","float","float","float","float","float","float","float","float","float","float","float","float","float","int","float","float","float","float","float","float","float","float","float","float","float","float","float","float","float","float","int","int","int","int","int","int","int","int","int","int","int","int","int","int","int","int","int","int","int","int","int","int","int","int","int","int"],"gradient_booster":{"model":{"cats":{"enc":[],"feature_segments":[],"sorted_idx":[]},"gbtree_model_param":{"num_parallel_tree":"1","num_trees":"300"},"iteration_indptr":[0,1,2,3,4,5,6,7,8,9,10,11,12,13,14,15,16,17,18,19,20,21,22,23,24,25,26,27,28,29,30,31,32,33,34,35,36,37,38,39,40,41,42,43,44,45,46,47,48,49,50,51,52,53,54,55,56,57,58,59,60,61,62,63,64,65,66,67,68,69,70,71,72,73,74,75,76,77,78,79,80,81,82,83,84,85,86,87,88,89,90,91,92,93,94,95,96,97,98,99,100,101,102,103,104,105,106,107,108,109,110,111,112,113,114,115,116,117,118,119,120,121,122,123,124,125,126,127,128,129,130,131,132,133,134,135,136,137,138,139,140,141,142,143,144,145,146,147,148,149,150,151,152,153,154,155,156,157,158,159,160,161,162,163,164,165,166,167,168,169,170,171,172,173,174,175,176,177,178,179,180,181,182,183,184,185,186,187,188,189,190,191,192,193,194,195,196,197,198,199,200,201,202,203,204,205,206,207,208,209,210,211,212,213,214,215,216,217,218,219,220,221,222,223,224,225,226,227,228,229,230,231,232,233,234,235,236,237,238,239,240,241,242,243,244,245,246,247,248,249,250,251,252,253,254,255,256,257,258,259,260,261,262,263,264,265,266,267,268,269,270,271,272,273,274,275,276,277,278,279,280,281,282,283,284,285,286,287,288,289,290,291,292,293,294,295,296,297,298,299,300],"tree_info":[0,0,0,0,0,0,0,0,0,0,0,0,0,0,0,0,0,0,0,0,0,0,0,0,0,0,0,0,0,0,0,0,0,0,0,0,0,0,0,0,0,0,0,0,0,0,0,0,0,0,0,0,0,0,0,0,0,0,0,0,0,0,0,0,0,0,0,0,0,0,0,0,0,0,0,0,0,0,0,0,0,0,0,0,0,0,0,0,0,0,0,0,0,0,0,0,0,0,0,0,0,0,0,0,0,0,0,0,0,0,0,0,0,0,0,0,0,0,0,0,0,0,0,0,0,0,0,0,0,0,0,0,0,0,0,0,0,0,0,0,0,0,0,0,0,0,0,0,0,0,0,0,0,0,0,0,0,0,0,0,0,0,0,0,0,0,0,0,0,0,0,0,0,0,0,0,0,0,0,0,0,0,0,0,0,0,0,0,0,0,0,0,0,0,0,0,0,0,0,0,0,0,0,0,0,0,0,0,0,0,0,0,0,0,0,0,0,0,0,0,0,0,0,0,0,0,0,0,0,0,0,0,0,0,0,0,0,0,0,0,0,0,0,0,0,0,0,0,0,0,0,0,0,0,0,0,0,0,0,0,0,0,0,0,0,0,0,0,0,0,0,0,0,0,0,0,0,0,0,0,0,0,0,0,0,0,0,0,0,0,0,0,0,0,0,0,0,0,0,0],"trees":[{"base_weights":[-2.7786267E-3,5.6664544E-1,-3.626058E-1,-1.4384872E-1,7.304904E-1,-5.739708E-1,1.14724465E-1,6.2985325E-1,-5.4765475E-1,5.5287987E-1,1.1623812E0,-9.279538E-1,-3.2966074E-1,-5.2116197E-2,6.228249E-1,1.3738762E-3,1.0298827E0,3.686219E-1,-9.155137E-1,8.905076E-1,3.5540733E-1,9.1006815E-1,1.2978247E0,-1.0511574E0,-1.272865E-1,-4.4492617E-1,5.230727E-1,-1.7728202E-1,5.4080045E-1,1.312469E0,4.8288703E-1,-3.9392236E-1,1.4649197E0,-9.945837E-2,1.1638767E0,1.5349182E-1,1.7287698E0,-1.4541293E0,-5.805862E-1,6.155434E-1,1.0913078E0,1.1796397E-1,5.455315E-1,5.9819615E-1,1.1720868E0,3.934316E-1,1.3276895E0,-4.1245463E-1,-1.2038782E0,-1.3205186E0,2.8300768E-1,2.125073E-1,-5.284325E-1,5.87576E-1,-8.824515E-1,-3.064058E-1,5.545819E-1,-1.5119507E0,6.062343E-1,-9.8533176E-2,1.4250145E0,-8.943677E-1,5.707616E-1,3.8525745E-2,-5.293081E-2,8.56771E-2,-9.722531E-2,-9.8841585E-2,6.1776556E-2,6.3158415E-2,-8.716467E-3,-9.318247E-2,9.2077486E-2,-1.7443692E-2,-8.3326735E-2,-1.190222E-2,-6.493493E-2,9.359286E-3,4.3509234E-2,4.422078E-2,6.624391E-2,3.120692E-4,4.4498906E-2,3.390605E-2,8.5941405E-4,-1.9896662E-2,3.9116144E-2,6.632171E-2,3.4415107E-2,-9.878928E-2,4.2763546E-2,3.1793635E-2,6.82651E-2,2.6557252E-2,-3.932052E-2,-6.4772226E-2,-2.5978787E-2,-8.498015E-2,2.1921428E-2,3.3825364E-2,-2.448127E-2,-7.471939E-3,4.921728E-2,-3.0095998E-2,1.4054472E-2,2.126052E-2,5.9459437E-2,-9.953796E-2,2.74928E-2,-3.2087937E-2,6.1690534E-4,4.937997E-2,1.8410691E-3,-9.9432856E-2,2.8698478E-2,9.203608E-3,4.132133E-2,7.291606E-2,-9.481725E-2,-7.518562E-2,9.4791455E-3,1.6322449E-2,4.46359E-2],"categories":[],"categories_nodes":[],"categories_segments":[],"categories_sizes":[],"default_left":[0,0,0,0,0,0,0,0,0,0,0,0,0,0,0,0,0,0,0,0,0,0,0,0,0,0,0,0,0,0,0,0,0,0,0,0,0,0,0,0,0,0,0,0,0,0,0,0,0,0,0,0,0,0,0,0,0,0,0,0,0,0,0,0,0,0,0,0,0,0,0,0,0,0,0,0,0,0,0,0,0,0,0,0,0,0,0,0,0,0,0,0,0,0,0,0,0,0,0,0,0,0,0,0,0,0,0,0,0,0,0,0,0,0,0,0,0,0,0,0,0,0,0],"id":0,"left_children":[1,3,5,7,9,11,13,15,17,19,21,23,25,27,29,31,33,35,37,39,41,43,45,47,49,51,53,55,57,59,61,63,65,-1,67,69,71,73,75,77,79,81,83,85,87,89,91,93,95,97,99,101,103,105,107,109,111,113,115,-1,117,119,121,-1,-1,-1,-1,-1,-1,-1,-1,-1,-1,-1,-1,-1,-1,-1,-1,-1,-1,-1,-1,-1,-1,-1,-1,-1,-1,-1,-1,-1,-1,-1,-1,-1,-1,-1,-1,-1,-1,-1,-1,-1,-1,-1,-1,-1,-1,-1,-1,-1,-1,-1,-1,-1,-1,-1,-1,-1,-1,-1,-1],"loss_changes":[5.0530273E4,1.1116816E4,1.5246793E4,5.591513E3,5.951957E3,9.057871E3,3.9318176E3,1.5430518E3,3.963973E3,3.6659453E3,7.715664E2,4.21891E3,6.0915156E3,2.5913672E3,1.105831E3,1.382211E3,1.5194922E3,9.8564026E2,1.512877E3,1.1197354E3,1.5663247E3,6.4500195E2,3.9682422E2,3.6150586E3,2.79329E3,2.9972734E3,6.6958215E2,2.7247576E3,8.184419E2,7.1720483E2,1.1542095E3,1.4567695E3,4.3400403E2,0E0,8.107334E2,1.0589232E3,1.8982043E2,7.5454736E2,1.2727728E3,9.3429517E2,5.655039E2,1.3308691E3,1.34981E3,6.6238416E2,3.1965234E2,5.1780884E2,3.696875E2,2.524872E3,1.8736445E3,9.7416064E2,1.2912185E3,1.7192266E3,2.8818945E3,6.887949E2,5.157734E2,2.6197166E3,9.6945435E2,1.8838644E2,5.482117E2,0E0,2.096206E2,3.7817972E2,7.046062E2,0E0,0E0,0E0,0E0,0E0,0E0,0E0,0E0,0E0,0E0,0E0,0E0,0E0,0E0,0E0,0E0,0E0,0E0,0E0,0E0,0E0,0E0,0E0,0E0,0E0,0E0,0E0,0E0,0E0,0E0,0E0,0E0,0E0,0E0,0E0,0E0,0E0,0E0,0E0,0E0,0E0,0E0,0E0,0E0,0E0,0E0,0E0,0E0,0E0,0E0,0E0,0E0,0E0,0E0,0E0,0E0,0E0,0E0,0E0,0E0],"parents":[2147483647,0,0,1,1,2,2,3,3,4,4,5,5,6,6,7,7,8,8,9,9,10,10,11,11,12,12,13,13,14,14,15,15,16,16,17,17,18,18,19,19,20,20,21,21,22,22,23,23,24,24,25,25,26,26,27,27,28,28,29,29,30,30,31,31,32,32,34,34,35,35,36,36,37,37,38,38,39,39,40,40,41,41,42,42,43,43,44,44,45,45,46,46,47,47,48,48,49,49,50,50,51,51,52,52,53,53,54,54,55,55,56,56,57,57,58,58,60,60,61,61,62,62],"right_children":[2,4,6,8,10,12,14,16,18,20,22,24,26,28,30,32,34,36,38,40,42,44,46,48,50,52,54,56,58,60,62,64,66,-1,68,70,72,74,76,78,80,82,84,86,88,90,92,94,96,98,100,102,104,106,108,110,112,114,116,-1,118,120,122,-1,-1,-1,-1,-1,-1,-1,-1,-1,-1,-1,-1,-1,-1,-1,-1,-1,-1,-1,-1,-1,-1,-1,-1,-1,-1,-1,-1,-1,-1,-1,-1,-1,-1,-1,-1,-1,-1,-1,-1,-1,-1,-1,-1,-1,-1,-1,-1,-1,-1,-1,-1,-1,-1,-1,-1,-1,-1,-1,-1],"split_conditions":[2.4E0,5.071006E-1,9.5E1,2.4E0,3.7633335E1,2E1,2.55E1,2.4E1,1.035E2,1.4E0,1.875E1,3.7683334E1,2.5E0,2.7E0,9.831921E-1,3.74E2,8.5E1,3.8091667E1,1.8E1,1.9E1,2.1E1,8.949764E-1,7E0,8.6E1,5.071006E-1,8E-1,9.6003334E1,3.7866665E1,8E0,1.155E2,9.3E1,1.025E2,2.55E1,-9.945837E-2,3E-1,1.0327955E0,1.95E0,7.33E0,1.06E1,1.95E1,1.36E2,2.675E1,1.36E2,1.53E2,3.41E1,2.79E1,1.7E0,3.95E1,6E-1,8.45E0,3.23E1,3.7206665E1,7.45E0,2.9E0,1.085E2,2.25E1,8.316977E0,1.9281252E1,1.04E2,-9.8533176E-2,6.03E1,7.336E1,3.7333332E1,3.8525745E-2,-5.293081E-2,8.56771E-2,-9.722531E-2,-9.8841585E-2,6.1776556E-2,6.3158415E-2,-8.716467E-3,-9.318247E-2,9.2077486E-2,-1.7443692E-2,-8.3326735E-2,-1.190222E-2,-6.493493E-2,9.359286E-3,4.3509234E-2,4.422078E-2,6.624391E-2,3.120692E-4,4.4498906E-2,3.390605E-2,8.5941405E-4,-1.9896662E-2,3.9116144E-2,6.632171E-2,3.4415107E-2,-9.878928E-2,4.2763546E-2,3.1793635E-2,6.82651E-2,2.6557252E-2,-3.932052E-2,-6.4772226E-2,-2.5978787E-2,-8.498015E-2,2.1921428E-2,3.3825364E-2,-2.448127E-2,-7.471939E-3,4.921728E-2,-3.0095998E-2,1.4054472E-2,2.126052E-2,5.9459437E-2,-9.953796E-2,2.74928E-2,-3.2087937E-2,6.1690534E-4,4.937997E-2,1.8410691E-3,-9.9432856E-2,2.8698478E-2,9.203608E-3,4.132133E-2,7.291606E-2,-9.481725E-2,-7.518562E-2,9.4791455E-3,1.6322449E-2,4.46359E-2],"split_indices":[21,35,0,25,41,14,6,14,17,25,6,41,21,21,44,31,12,41,6,6,14,40,14,13,35,25,45,41,14,3,20,17,8,0,25,50,22,10,28,14,20,6,3,32,29,29,22,11,9,16,27,41,10,25,17,14,16,44,0,0,29,33,41,0,0,0,0,0,0,0,0,0,0,0,0,0,0,0,0,0,0,0,0,0,0,0,0,0,0,0,0,0,0,0,0,0,0,0,0,0,0,0,0,0,0,0,0,0,0,0,0,0,0,0,0,0,0,0,0,0,0,0,0],"split_type":[0,0,0,0,0,0,0,0,0,0,0,0,0,0,0,0,0,0,0,0,0,0,0,0,0,0,0,0,0,0,0,0,0,0,0,0,0,0,0,0,0,0,0,0,0,0,0,0,0,0,0,0,0,0,0,0,0,0,0,0,0,0,0,0,0,0,0,0,0,0,0,0,0,0,0,0,0,0,0,0,0,0,0,0,0,0,0,0,0,0,0,0,0,0,0,0,0,0,0,0,0,0,0,0,0,0,0,0,0,0,0,0,0,0,0,0,0,0,0,0,0,0,0],"sum_hessian":[2.4661434E5,9.549445E4,1.5111989E5,1.7895006E4,7.7599445E4,1.04740086E5,4.637981E4,6.136591E3,1.1758414E4,5.4988348E4,2.26111E4,4.2768965E4,6.1971125E4,3.4915723E4,1.1464085E4,2.3871633E3,3.7494275E3,3.3683652E3,8.390049E3,2.0291514E4,3.4696832E4,7.9007695E3,1.471033E4,3.7065203E4,5.7037637E3,5.4592273E4,7.3788525E3,2.8830295E4,6.085428E3,1.9324037E3,9.531681E3,1.8800912E3,5.0707217E2,1.587499E2,3.5906775E3,2.9093206E3,4.590447E2,3.2155703E3,5.174479E3,8.565912E3,1.1725603E4,1.5429177E4,1.9267656E4,3.6087175E3,4.2920522E3,4.7068716E2,1.4239643E4,7.153175E3,2.9912027E4,1.458854E3,4.2449097E3,6.152551E3,4.8439723E4,7.055633E3,3.232198E2,2.450706E4,4.3232344E3,1.8730487E2,5.8981235E3,6.3499954E1,1.8689037E3,5.711346E2,8.960547E3,6.8315454E2,1.1969366E3,4.7307217E2,3.3999977E1,7.949995E1,3.5111777E3,6.628196E2,2.246501E3,1.349999E1,4.455447E2,5.1877216E2,2.696798E3,3.5042651E3,1.6702139E3,3.1942603E3,5.3716514E3,6.220441E3,5.505161E3,1.347949E4,1.9496862E3,1.5402152E4,3.865505E3,5.627996E2,3.045918E3,3.252598E3,1.0394543E3,7.624995E1,3.9443723E2,7.35182E2,1.3504461E4,2.0301337E3,5.1230415E3,2.638109E4,3.5309375E3,1.2002191E3,2.5863483E2,2.8125906E3,1.432319E3,4.188977E3,1.9635737E3,4.4408613E4,4.0311072E3,5.5574688E3,1.498164E3,1.8199986E2,1.4121991E2,1.1941892E4,1.2565169E4,2.3537883E3,1.9694462E3,1.524999E2,3.4804977E1,2.0224436E3,3.87568E3,1.8509038E3,1.7999987E1,3.6535974E2,2.0577486E2,5.095729E3,3.8648174E3],"tree_param":{"num_deleted":"0","num_feature":"77","num_nodes":"123","size_leaf_vector":"1"}},{"base_weights":[3.044161E-3,-1.7626247E-1,7.2546506E-1,3.6776906E-1,-4.0680125E-1,8.841264E-1,-1.4040078E-1,6.37602E-1,4.5990452E-2,-2.3868278E-1,-9.8679155E-1,6.5384346E-1,1.0946593E0,1.0050346E0,-6.4714706E-1,4.562839E-1,8.8232565E-1,-3.6133638E-1,7.9426706E-1,-3.6499837E-1,5.695262E-1,-1.168117E0,-6.3968087E-3,5.586318E-1,1.1298923E0,4.4270164E-1,1.1758543E0,-8.824341E-1,1.108844E0,-9.0407413E-1,5.333811E-1,3.142611E-1,1.1472739E0,1.461436E0,7.6698995E-1,7.021988E-1,-5.479366E-1,-1.16442256E-1,9.308237E-1,5.526344E-2,-7.0187104E-1,3.0836248E-1,1.013819E0,-1.2145686E0,1.0339645E0,-3.1139725E-1,8.78437E-1,9.1009307E-1,4.1092578E-1,-9.935716E-2,1.173164E0,-6.6267043E-1,6.2152857E-1,1.1914186E0,-3.7667325E-1,1.745713E0,-9.835274E-2,1.5922374E0,7.494458E-1,-3.176545E-2,-1.1562829E0,-1.519757E0,7.942E-1,5.619008E-3,3.696111E-2,7.5057946E-2,2.4678554E-2,7.438052E-2,-9.475719E-2,-8.107307E-2,3.962182E-2,-9.846323E-2,4.113755E-2,-4.7055975E-2,2.2546416E-4,-7.449375E-2,1.323607E-2,9.9966405E-3,5.1424738E-2,-1.4854883E-3,4.124568E-2,-5.9164118E-2,-1.8049832E-2,-1.0252624E-2,2.6558299E-2,-3.8216833E-2,5.253315E-2,-6.347864E-2,-9.021737E-3,7.664255E-2,-9.7016625E-2,-3.1953625E-2,3.072364E-2,6.536655E-2,-1.6965201E-2,6.997669E-2,3.593239E-2,2.2022532E-2,-7.460297E-2,6.017775E-2,-9.822914E-2,4.019225E-2,-7.871511E-2,1.5054527E-2,6.0042668E-2,6.436074E-2,4.792476E-2,5.1733542E-2,-7.8531295E-2,-6.0641985E-2,9.5397614E-2,-9.2447355E-2,8.262539E-2,8.117295E-3,6.783625E-2,-7.8921914E-2,2.3472792E-2,-7.071326E-2,-7.345829E-3,9.534684E-2,-9.7152136E-2,4.7702637E-2,-9.6245155E-2],"categories":[],"categories_nodes":[],"categories_segments":[],"categories_sizes":[],"default_left":[0,0,0,0,0,0,0,0,0,0,0,0,0,0,0,0,0,0,0,0,0,0,0,0,0,0,0,0,0,0,0,0,0,0,0,0,0,0,0,0,0,0,0,0,0,0,0,0,0,0,0,0,0,0,0,0,0,0,0,0,0,0,0,0,0,0,0,0,0,0,0,0,0,0,0,0,0,0,0,0,0,0,0,0,0,0,0,0,0,0,0,0,0,0,0,0,0,0,0,0,0,0,0,0,0,0,0,0,0,0,0,0,0,0,0,0,0,0,0,0,0,0,0],"id":1,"left_children":[1,3,5,7,9,11,13,15,17,19,21,23,25,27,29,31,33,35,37,39,41,43,45,47,49,51,53,55,57,59,61,63,65,67,69,71,73,75,77,79,81,83,85,87,89,91,93,95,97,-1,99,101,103,105,107,109,-1,111,113,115,117,119,121,-1,-1,-1,-1,-1,-1,-1,-1,-1,-1,-1,-1,-1,-1,-1,-1,-1,-1,-1,-1,-1,-1,-1,-1,-1,-1,-1,-1,-1,-1,-1,-1,-1,-1,-1,-1,-1,-1,-1,-1,-1,-1,-1,-1,-1,-1,-1,-1,-1,-1,-1,-1,-1,-1,-1,-1,-1,-1,-1,-1],"loss_changes":[3.207488E4,2.4880785E4,6.7644023E3,5.1266074E3,1.3585848E4,2.0167637E3,4.4271196E3,1.4246045E3,8.208738E3,1.1028292E4,5.56626E3,9.0029004E2,1.1501523E3,4.5935107E2,1.6042644E3,1.8101553E3,9.116865E2,3.4612974E3,1.1806929E3,1.3226418E4,1.6939443E3,2.7042031E3,1.3194811E3,8.596089E2,4.490327E2,4.765888E2,4.6751953E2,3.5266495E2,3.8411914E2,9.554148E2,5.0763867E2,1.3129512E3,7.268198E2,2.0213525E2,6.940747E2,8.400735E2,3.2227202E3,6.4886584E2,5.8911426E2,2.7185474E3,8.509256E3,1.052203E3,3.5491553E2,1.4718047E3,8.137863E2,1.1034753E3,6.550203E2,4.5823267E2,6.56103E2,0E0,3.1391748E2,4.5038278E2,3.8465326E2,4.2578906E2,3.2619617E2,1.9747467E1,0E0,1.9902832E2,4.5399518E2,7.566306E2,8.770303E2,1.5881967E2,3.6685248E2,0E0,0E0,0E0,0E0,0E0,0E0,0E0,0E0,0E0,0E0,0E0,0E0,0E0,0E0,0E0,0E0,0E0,0E0,0E0,0E0,0E0,0E0,0E0,0E0,0E0,0E0,0E0,0E0,0E0,0E0,0E0,0E0,0E0,0E0,0E0,0E0,0E0,0E0,0E0,0E0,0E0,0E0,0E0,0E0,0E0,0E0,0E0,0E0,0E0,0E0,0E0,0E0,0E0,0E0,0E0,0E0,0E0,0E0,0E0,0E0],"parents":[2147483647,0,0,1,1,2,2,3,3,4,4,5,5,6,6,7,7,8,8,9,9,10,10,11,11,12,12,13,13,14,14,15,15,16,16,17,17,18,18,19,19,20,20,21,21,22,22,23,23,24,24,25,25,26,26,27,27,28,28,29,29,30,30,31,31,32,32,33,33,34,34,35,35,36,36,37,37,38,38,39,39,40,40,41,41,42,42,43,43,44,44,45,45,46,46,47,47,48,48,50,50,51,51,52,52,53,53,54,54,55,55,57,57,58,58,59,59,60,60,61,61,62,62],"right_children":[2,4,6,8,10,12,14,16,18,20,22,24,26,28,30,32,34,36,38,40,42,44,46,48,50,52,54,56,58,60,62,64,66,68,70,72,74,76,78,80,82,84,86,88,90,92,94,96,98,-1,100,102,104,106,108,110,-1,112,114,116,118,120,122,-1,-1,-1,-1,-1,-1,-1,-1,-1,-1,-1,-1,-1,-1,-1,-1,-1,-1,-1,-1,-1,-1,-1,-1,-1,-1,-1,-1,-1,-1,-1,-1,-1,-1,-1,-1,-1,-1,-1,-1,-1,-1,-1,-1,-1,-1,-1,-1,-1,-1,-1,-1,-1,-1,-1,-1,-1,-1,-1,-1],"split_conditions":[3.772E1,3.5620752E2,1E0,5.1E-1,1E0,3.811E1,1.035E2,1.9924486E1,6E-1,6E-1,1.45E0,2.5583334E1,1.6E1,2.25E1,2.5E1,3.2E0,9.831921E-1,9.831921E-1,1.6666666E1,5.1E-1,2.3166666E1,4.12E2,9.7666664E1,9.8E1,7.3E0,4.082483E-1,4.2E1,7.28E0,3.75E1,6.5333336E1,1.03E2,2.65E1,4.15E0,5.6E0,9.45E1,1.14E2,1.35E0,7.5833336E1,1E2,2.5583334E1,1.3E0,2.4094475E1,9.1333336E1,3.39E2,5.8166668E1,7.43E0,3.7025E1,9E0,1.065E2,-9.935716E-2,1.27166664E2,3.7725E1,1.4899665E1,4.0781937E1,2.5E0,8.35E0,-9.835274E-2,6.5E-1,8.45E0,9.8E0,3.839E1,1.5E0,1.16E1,5.619008E-3,3.696111E-2,7.5057946E-2,2.4678554E-2,7.438052E-2,-9.475719E-2,-8.107307E-2,3.962182E-2,-9.846323E-2,4.113755E-2,-4.7055975E-2,2.2546416E-4,-7.449375E-2,1.323607E-2,9.9966405E-3,5.1424738E-2,-1.4854883E-3,4.124568E-2,-5.9164118E-2,-1.8049832E-2,-1.0252624E-2,2.6558299E-2,-3.8216833E-2,5.253315E-2,-6.347864E-2,-9.021737E-3,7.664255E-2,-9.7016625E-2,-3.1953625E-2,3.072364E-2,6.536655E-2,-1.6965201E-2,6.997669E-2,3.593239E-2,2.2022532E-2,-7.460297E-2,6.017775E-2,-9.822914E-2,4.019225E-2,-7.871511E-2,1.5054527E-2,6.0042668E-2,6.436074E-2,4.792476E-2,5.1733542E-2,-7.8531295E-2,-6.0641985E-2,9.5397614E-2,-9.2447355E-2,8.262539E-2,8.117295E-3,6.783625E-2,-7.8921914E-2,2.3472792E-2,-7.071326E-2,-7.345829E-3,9.534684E-2,-9.7152136E-2,4.7702637E-2,-9.6245155E-2],"split_indices":[2,13,36,9,36,2,17,49,9,9,18,49,49,8,49,18,44,44,49,9,49,13,37,13,16,40,27,10,11,45,20,8,24,23,17,43,18,37,20,49,18,8,43,32,47,10,41,28,45,0,37,41,44,29,23,16,0,18,16,28,2,23,28,0,0,0,0,0,0,0,0,0,0,0,0,0,0,0,0,0,0,0,0,0,0,0,0,0,0,0,0,0,0,0,0,0,0,0,0,0,0,0,0,0,0,0,0,0,0,0,0,0,0,0,0,0,0,0,0,0,0,0,0],"split_type":[0,0,0,0,0,0,0,0,0,0,0,0,0,0,0,0,0,0,0,0,0,0,0,0,0,0,0,0,0,0,0,0,0,0,0,0,0,0,0,0,0,0,0,0,0,0,0,0,0,0,0,0,0,0,0,0,0,0,0,0,0,0,0,0,0,0,0,0,0,0,0,0,0,0,0,0,0,0,0,0,0,0,0,0,0,0,0,0,0,0,0,0,0,0,0,0,0,0,0,0,0,0,0,0,0,0,0,0,0,0,0,0,0,0,0,0,0,0,0,0,0,0,0],"sum_hessian":[2.4761384E5,1.9837695E5,4.923689E4,5.904363E4,1.3933333E5,4.16119E4,7.624992E3,3.2113406E4,2.6930223E4,1.0802279E5,3.1310535E4,1.9875732E4,2.1736166E4,2.3383857E3,5.2866064E3,1.8447984E4,1.3665422E4,1.74382E4,9.492023E3,9.34223E4,1.4600493E4,2.6423312E4,4.8872227E3,1.6564865E4,3.3108677E3,2.4079456E3,1.932822E4,1.2151388E2,2.2168718E3,4.3418843E3,9.447223E2,1.5303939E4,3.144044E3,2.2676565E3,1.1397766E4,2.602483E3,1.4835716E4,1.2377168E3,8.254307E3,4.1566855E4,5.185544E4,9.196381E3,5.404113E3,2.5877885E4,5.454295E2,3.6349207E3,1.2523018E3,4.900095E3,1.166477E4,4.4718025E1,3.2661497E3,3.3493378E2,2.073012E3,1.9136605E4,1.9161487E2,3.532011E1,8.619377E1,9.438954E2,1.2729764E3,9.74058E2,3.3678262E3,1.0594081E2,8.387815E2,1.0376005E4,4.927935E3,2.0389518E3,1.1050922E3,2.2506628E3,1.699368E1,1.19490005E2,1.1278275E4,1.1170649E2,2.4907766E3,8.666765E3,6.168951E3,2.6824628E2,9.694705E2,9.733783E2,7.2809287E3,3.743483E4,4.13203E3,2.1495385E4,3.0360057E4,2.7831458E3,6.413235E3,1.09301285E2,5.2948115E3,2.457077E4,1.3071147E3,4.674993E2,7.793022E1,2.6849856E3,9.499351E2,9.2606415E2,3.262376E2,1.3759902E3,3.5241047E3,1.14873125E4,1.7745746E2,3.235429E3,3.0720737E1,1.2843782E2,2.0649596E2,1.3357161E3,7.3729584E2,1.3556572E4,5.580033E3,8.787419E1,1.0374067E2,1.4995259E0,3.3820583E1,1.5736417E1,9.28159E2,6.4788617E2,6.250902E2,2.3787428E2,7.3618365E2,2.6819497E3,6.8587634E2,1.1262286E1,9.467853E1,7.928216E2,4.5959873E1],"tree_param":{"num_deleted":"0","num_feature":"77","num_nodes":"123","size_leaf_vector":"1"}},{"base_weights":[5.387705E-3,5.261883E-1,-3.3382925E-1,-1.0851539E-1,6.7476314E-1,-4.9048808E-1,3.3674377E-1,-6.447165E-1,4.3431905E-1,5.2592534E-1,1.1855106E0,-5.982678E-1,3.313178E-1,-4.7349033E-1,4.6465304E-1,2.1356666E-1,-9.472806E-1,-3.8108432E-1,8.13256E-1,2.1214741E-1,7.1116024E-1,7.786928E-1,1.2630262E0,-9.310306E-1,-3.261052E-1,-3.9248434E-1,5.1190007E-1,-8.5338426E-1,3.886444E-1,3.4223735E-1,1.000404E0,-1.3483907E-1,1.6412492E0,6.4779216E-1,-1.0625861E0,-5.647623E-1,1.4235893E0,6.0167197E-2,1.0451968E0,-1.0242689E-1,4.6055615E-1,5.9132034E-1,1.0424688E0,-5.61949E-1,9.593473E-1,1.1108515E0,1.4284854E0,-3.160213E-1,-1.0467542E0,-4.237984E-1,5.576881E-1,1.809049E-1,-1.2217818E0,1.2112398E0,3.8479242E-1,3.1099427E-1,-1.1308162E0,-1.7645391E0,1.0288601E0,2.4309433E-1,1.0061343E0,-9.906193E-2,1.022882E0,-6.03729E-2,2.3033146E-2,8.812655E-2,-9.256194E-2,-9.421144E-2,8.381376E-2,6.250534E-2,-5.5748433E-2,-4.22235E-2,5.1333558E-2,-9.960403E-2,8.876572E-2,4.9552254E-2,-5.1023133E-2,6.569947E-2,3.1267073E-2,3.1472102E-3,-7.032198E-2,2.7896127E-2,-4.55175E-2,4.1146982E-2,1.9758396E-2,2.152401E-2,5.554579E-2,5.600786E-2,-5.647732E-2,-6.515338E-2,5.0724447E-2,5.62461E-2,-9.924236E-2,-1.0039449E-1,7.185662E-2,-3.4729816E-2,1.8288745E-2,-5.7290524E-2,-2.2907933E-2,-3.0290572E-2,-5.8680703E-3,-6.396932E-2,3.181455E-2,-9.669258E-2,1.8877078E-2,7.4104995E-2,-7.093638E-2,-1.0093635E-1,6.5434836E-2,-3.7141934E-3,3.0432045E-2,-9.598129E-2,4.141372E-2,6.6581905E-2,-6.590136E-2,-9.654858E-2,4.4496473E-2,6.078375E-2,-9.715651E-2,5.6700426E-4,2.7767941E-2,5.356921E-2,-1.0004665E-1,1.9670254E-2,5.5034198E-2],"categories":[],"categories_nodes":[],"categories_segments":[],"categories_sizes":[],"default_left":[0,0,0,0,0,0,0,0,0,0,0,0,0,0,0,0,0,0,0,0,0,0,0,0,0,0,0,0,0,0,0,0,0,0,0,0,0,0,0,0,0,0,0,0,0,0,0,0,0,0,0,0,0,0,0,0,0,0,0,0,0,0,0,0,0,0,0,0,0,0,0,0,0,0,0,0,0,0,0,0,0,0,0,0,0,0,0,0,0,0,0,0,0,0,0,0,0,0,0,0,0,0,0,0,0,0,0,0,0,0,0,0,0,0,0,0,0,0,0,0,0,0,0,0,0],"id":2,"left_children":[1,3,5,7,9,11,13,15,17,19,21,23,25,27,29,31,33,35,37,39,41,43,45,47,49,51,53,55,57,59,61,63,65,67,69,71,73,75,77,79,81,83,85,87,89,91,93,95,97,99,101,103,105,107,109,111,113,115,117,119,121,-1,123,-1,-1,-1,-1,-1,-1,-1,-1,-1,-1,-1,-1,-1,-1,-1,-1,-1,-1,-1,-1,-1,-1,-1,-1,-1,-1,-1,-1,-1,-1,-1,-1,-1,-1,-1,-1,-1,-1,-1,-1,-1,-1,-1,-1,-1,-1,-1,-1,-1,-1,-1,-1,-1,-1,-1,-1,-1,-1,-1,-1,-1,-1],"loss_changes":[4.3729754E4,9.206996E3,1.5746996E4,5.390947E3,6.013508E3,1.076284E4,2.9422117E3,2.419814E3,2.844162E3,3.5606426E3,5.61959E2,9.728445E3,1.8417148E3,1.2681436E3,1.6076323E3,1.2085997E3,1.2677437E3,9.6900037E2,1.0975703E3,1.7772222E3,1.5288574E3,6.931332E2,3.7591797E2,3.4393594E3,5.1023853E3,1.3382003E3,1.00189355E3,8.684359E2,1.634895E3,1.3134731E3,3.076206E2,1.2484778E3,2.0514868E2,1.2142241E3,7.797588E2,1.1812505E3,3.2803143E2,1.4905193E3,5.4135693E2,2.1642437E3,1.6967632E3,1.2850352E3,4.281006E2,3.2609192E2,3.157578E2,3.4261816E2,2.1621484E2,1.9761632E3,2.3710312E3,2.9678525E3,8.502191E2,6.9286597E2,6.1468066E2,5.4841675E2,9.807589E2,5.9913324E2,1.0023076E3,1.21833496E2,5.0971167E2,1.2568221E3,5.1091675E2,0E0,2.2123438E2,0E0,0E0,0E0,0E0,0E0,0E0,0E0,0E0,0E0,0E0,0E0,0E0,0E0,0E0,0E0,0E0,0E0,0E0,0E0,0E0,0E0,0E0,0E0,0E0,0E0,0E0,0E0,0E0,0E0,0E0,0E0,0E0,0E0,0E0,0E0,0E0,0E0,0E0,0E0,0E0,0E0,0E0,0E0,0E0,0E0,0E0,0E0,0E0,0E0,0E0,0E0,0E0,0E0,0E0,0E0,0E0,0E0,0E0,0E0,0E0,0E0,0E0],"parents":[2147483647,0,0,1,1,2,2,3,3,4,4,5,5,6,6,7,7,8,8,9,9,10,10,11,11,12,12,13,13,14,14,15,15,16,16,17,17,18,18,19,19,20,20,21,21,22,22,23,23,24,24,25,25,26,26,27,27,28,28,29,29,30,30,31,31,32,32,33,33,34,34,35,35,36,36,37,37,38,38,39,39,40,40,41,41,42,42,43,43,44,44,45,45,46,46,47,47,48,48,49,49,50,50,51,51,52,52,53,53,54,54,55,55,56,56,57,57,58,58,59,59,60,60,62,62],"right_children":[2,4,6,8,10,12,14,16,18,20,22,24,26,28,30,32,34,36,38,40,42,44,46,48,50,52,54,56,58,60,62,64,66,68,70,72,74,76,78,80,82,84,86,88,90,92,94,96,98,100,102,104,106,108,110,112,114,116,118,120,122,-1,124,-1,-1,-1,-1,-1,-1,-1,-1,-1,-1,-1,-1,-1,-1,-1,-1,-1,-1,-1,-1,-1,-1,-1,-1,-1,-1,-1,-1,-1,-1,-1,-1,-1,-1,-1,-1,-1,-1,-1,-1,-1,-1,-1,-1,-1,-1,-1,-1,-1,-1,-1,-1,-1,-1,-1,-1,-1,-1,-1,-1,-1,-1],"split_conditions":[2.4692028E0,5.071006E-1,2.3166666E1,2.15E1,3.789E1,3.783E1,5.071006E-1,1.035E2,7.39E0,1.775E1,1.65E1,2.15E1,5.071006E-1,2.7916666E1,1E0,2.75E1,4.274E1,4.12E2,1.725E1,1.95E1,2.475E1,4.082483E-1,3.833E1,5.1E1,2.8E0,1.06E2,6.5E0,8E0,9.5E-1,3.811E1,8.75E1,3.01E1,3.08E1,4.091E1,6E0,6.8E1,1.5416667E1,8E1,4.15E0,8.7E0,8.178E1,2.08E2,9.7E1,8E-1,2.5E1,2.4E0,7.0710677E-1,1.44E2,1E0,8.6083336E1,7.35E0,5.144E1,5.8333332E1,2.49E1,2.2861904E-1,6.567E1,3.567E1,1.495E2,3.39E1,2.6666666E1,1.32E1,-9.906193E-2,5.477226E-1,-6.03729E-2,2.3033146E-2,8.812655E-2,-9.256194E-2,-9.421144E-2,8.381376E-2,6.250534E-2,-5.5748433E-2,-4.22235E-2,5.1333558E-2,-9.960403E-2,8.876572E-2,4.9552254E-2,-5.1023133E-2,6.569947E-2,3.1267073E-2,3.1472102E-3,-7.032198E-2,2.7896127E-2,-4.55175E-2,4.1146982E-2,1.9758396E-2,2.152401E-2,5.554579E-2,5.600786E-2,-5.647732E-2,-6.515338E-2,5.0724447E-2,5.62461E-2,-9.924236E-2,-1.0039449E-1,7.185662E-2,-3.4729816E-2,1.8288745E-2,-5.7290524E-2,-2.2907933E-2,-3.0290572E-2,-5.8680703E-3,-6.396932E-2,3.181455E-2,-9.669258E-2,1.8877078E-2,7.4104995E-2,-7.093638E-2,-1.0093635E-1,6.5434836E-2,-3.7141934E-3,3.0432045E-2,-9.598129E-2,4.141372E-2,6.6581905E-2,-6.590136E-2,-9.654858E-2,4.4496473E-2,6.078375E-2,-9.715651E-2,5.6700426E-4,2.7767941E-2,5.356921E-2,-1.0004665E-1,1.9670254E-2,5.5034198E-2],"split_indices":[21,35,49,14,2,2,35,17,10,49,49,14,35,49,53,49,33,13,49,14,49,40,2,13,21,17,30,30,18,2,1,27,29,33,14,14,49,13,24,16,33,13,20,21,27,21,46,20,53,37,16,33,45,29,42,33,2,43,27,49,28,0,40,0,0,0,0,0,0,0,0,0,0,0,0,0,0,0,0,0,0,0,0,0,0,0,0,0,0,0,0,0,0,0,0,0,0,0,0,0,0,0,0,0,0,0,0,0,0,0,0,0,0,0,0,0,0,0,0,0,0,0,0,0,0],"split_type":[0,0,0,0,0,0,0,0,0,0,0,0,0,0,0,0,0,0,0,0,0,0,0,0,0,0,0,0,0,0,0,0,0,0,0,0,0,0,0,0,0,0,0,0,0,0,0,0,0,0,0,0,0,0,0,0,0,0,0,0,0,0,0,0,0,0,0,0,0,0,0,0,0,0,0,0,0,0,0,0,0,0,0,0,0,0,0,0,0,0,0,0,0,0,0,0,0,0,0,0,0,0,0,0,0,0,0,0,0,0,0,0,0,0,0,0,0,0,0,0,0,0,0,0,0],"sum_hessian":[2.475281E5,9.763235E4,1.4989575E5,1.8519271E4,7.911308E4,1.2150913E5,2.8386613E4,9.316465E3,9.202808E3,6.1262504E4,1.7850578E4,1.0742113E5,1.4087996E4,3.8699475E3,2.4516666E4,2.4283271E3,6.888138E3,2.919839E3,6.2829683E3,2.27416E4,3.8520902E4,2.8586787E3,1.4991899E4,4.8328863E4,5.909227E4,2.812776E3,1.1275221E4,2.6862703E3,1.183677E3,1.9958023E4,4.558643E3,1.9527031E3,4.7562402E2,4.6405396E2,6.424084E3,2.6507366E3,2.6910245E2,1.4797208E3,4.8032476E3,1.0034686E4,1.2706914E4,2.8290531E4,1.0230373E4,3.3921848E2,2.5194602E3,7.813472E3,7.178427E3,7.6542705E3,4.0674594E4,5.321093E4,5.881337E3,1.6634337E3,1.1493422E3,1.7328177E3,9.542402E3,5.168666E2,2.1694038E3,2.70883E2,9.1279407E2,1.7366033E4,2.59199E3,3.3457573E1,4.5251855E3,6.96728E2,1.2559751E3,4.6014032E2,1.5483693E1,1.3380573E2,3.3024823E2,1.4177655E2,6.2823076E3,2.2548904E3,3.9584628E2,2.4688072E1,2.4441437E2,7.949858E2,6.84735E2,2.927149E3,1.8760985E3,8.906182E3,1.1285043E3,1.1864826E4,8.420874E2,1.2971006E4,1.5319524E4,1.0298365E3,9.200537E3,8.533878E1,2.538797E2,5.940709E1,2.4600532E3,7.778753E3,3.47194E1,1.743736E1,7.1609893E3,4.921522E3,2.732749E3,3.481461E4,5.8599834E3,3.3382125E4,1.9828805E4,2.4069241E2,5.6406445E3,1.4076137E2,1.5226724E3,7.758921E1,1.0717529E3,5.017502E1,1.6826427E3,3.1280193E3,6.4143833E3,9.678753E1,4.2007904E2,1.5284633E2,2.0165575E3,2.5515746E2,1.5725534E1,8.593665E2,5.3427532E1,9.968626E3,7.397407E3,2.5375713E3,5.4418694E1,4.9844452E2,4.0267412E3],"tree_param":{"num_deleted":"0","num_feature":"77","num_nodes":"125","size_leaf_vector":"1"}},{"base_weights":[5.4741013E-3,-1.7255975E-1,5.770101E-1,3.2676977E-1,-3.5397497E-1,-2.1221823E-1,7.317628E-1,5.140926E-2,6.437245E-1,-9.3356264E-1,-1.9486822E-1,-5.209739E-1,7.362142E-1,5.113928E-1,1.0050007E0,4.0305245E-1,-4.624591E-1,4.907839E-1,1.0211279E0,-1.0950463E0,-5.9962828E-2,-3.1614834E-1,4.1439387E-1,3.1406975E-1,-7.5825304E-1,-9.641898E-1,9.9901706E-1,8.2931656E-1,3.579115E-1,4.144183E-1,1.0886431E0,2.4971937E-1,1.0835977E0,-7.817447E-1,3.509579E-1,2.553298E-1,8.876189E-1,-1.4465411E0,1.0484465E0,-1.1333025E0,6.359045E-1,2.9898226E-1,-9.926368E-1,-4.2514652E-1,3.2358494E-1,1.4161794E-1,6.933342E-1,5.6285435E-1,-9.42502E-2,-8.9578146E-1,8.102366E-1,1.1496569E0,-1.7349243E0,-2.363295E-2,1.3138105E0,1.0825572E0,4.4868785E-1,8.8406526E-2,6.66122E-1,7.2510386E-1,-3.5446385E-1,1.0978247E0,-1.4344714E0,2.793514E-3,3.5822563E-2,-1.0451555E-1,5.7646334E-2,-5.216503E-2,-4.4597567E-5,2.3856042E-2,-7.613773E-2,1.834219E-2,-2.7326373E-2,-7.964423E-2,4.64869E-2,-1.0193751E-1,8.583572E-2,-1.3390747E-2,5.5014826E-2,-6.554916E-2,-3.5356995E-2,-8.315193E-2,7.3256515E-2,3.3876456E-2,-2.3027008E-2,-6.1284807E-2,5.2726667E-2,-3.6643412E-2,-1.0619747E-2,-2.1027083E-2,2.1565247E-2,-2.8138608E-2,1.407976E-2,6.281652E-2,2.7138699E-2,3.761002E-2,-4.462486E-2,-5.0199207E-2,4.688917E-2,-9.242558E-2,6.5101676E-2,-8.865146E-2,8.137875E-2,5.8809884E-2,-9.59781E-2,-6.196167E-2,6.662927E-2,-9.485727E-2,6.9630586E-2,5.5019405E-2,-1.02530256E-1,-7.709229E-2,2.7629515E-2,-2.0096866E-2,1.4544323E-2,-7.2913244E-3,3.6098137E-2,4.4072714E-2,-3.177653E-2,9.76547E-3,-7.480516E-2,5.0797343E-2,6.583294E-2,8.38558E-2,-1.0273179E-1],"categories":[],"categories_nodes":[],"categories_segments":[],"categories_sizes":[],"default_left":[0,0,0,0,0,0,0,0,0,0,0,0,0,0,0,0,0,0,0,0,0,0,0,0,0,0,0,0,0,0,0,0,0,0,0,0,0,0,0,0,0,0,0,0,0,0,0,0,0,0,0,0,0,0,0,0,0,0,0,0,0,0,0,0,0,0,0,0,0,0,0,0,0,0,0,0,0,0,0,0,0,0,0,0,0,0,0,0,0,0,0,0,0,0,0,0,0,0,0,0,0,0,0,0,0,0,0,0,0,0,0,0,0,0,0,0,0,0,0,0,0,0,0,0,0],"id":3,"left_children":[1,3,5,7,9,11,13,15,17,19,21,23,25,27,29,31,33,35,37,39,41,43,45,47,49,51,53,55,57,59,61,63,65,67,69,71,73,75,77,79,81,83,85,87,89,91,93,95,-1,97,99,101,103,105,107,109,111,113,115,117,119,121,123,-1,-1,-1,-1,-1,-1,-1,-1,-1,-1,-1,-1,-1,-1,-1,-1,-1,-1,-1,-1,-1,-1,-1,-1,-1,-1,-1,-1,-1,-1,-1,-1,-1,-1,-1,-1,-1,-1,-1,-1,-1,-1,-1,-1,-1,-1,-1,-1,-1,-1,-1,-1,-1,-1,-1,-1,-1,-1,-1,-1,-1,-1],"loss_changes":[2.5126611E4,1.705623E4,7.1635527E3,4.3793403E3,1.2735773E4,2.8162344E3,2.9521445E3,4.8522803E3,1.3459463E3,4.19641E3,8.00726E3,1.4377062E3,1.0564707E3,1.3243174E3,1.0809219E3,1.6633779E3,2.8337246E3,1.550999E3,4.549458E2,1.6632363E3,1.554306E3,6.301914E3,1.3687505E3,8.797152E2,1.2194619E3,5.1795905E2,6.5878357E2,8.5137695E2,1.5208235E3,6.4938416E2,4.457871E2,1.1772881E3,6.474209E2,1.600188E3,7.278677E2,9.320332E2,6.4734326E2,1.422505E2,4.5435352E2,1.8590508E3,1.0385704E3,9.642543E2,6.1687683E2,5.0551924E3,1.0548105E3,8.970998E2,7.5324854E2,3.9847052E2,0E0,1.031583E3,5.986285E2,1.21920876E2,1.2721405E2,7.973069E2,3.9854834E2,2.9869482E2,7.314422E2,9.70066E2,3.8736914E2,4.123473E2,4.9154547E2,3.4099414E2,1.384434E2,0E0,0E0,0E0,0E0,0E0,0E0,0E0,0E0,0E0,0E0,0E0,0E0,0E0,0E0,0E0,0E0,0E0,0E0,0E0,0E0,0E0,0E0,0E0,0E0,0E0,0E0,0E0,0E0,0E0,0E0,0E0,0E0,0E0,0E0,0E0,0E0,0E0,0E0,0E0,0E0,0E0,0E0,0E0,0E0,0E0,0E0,0E0,0E0,0E0,0E0,0E0,0E0,0E0,0E0,0E0,0E0,0E0,0E0,0E0,0E0,0E0,0E0],"parents":[2147483647,0,0,1,1,2,2,3,3,4,4,5,5,6,6,7,7,8,8,9,9,10,10,11,11,12,12,13,13,14,14,15,15,16,16,17,17,18,18,19,19,20,20,21,21,22,22,23,23,24,24,25,25,26,26,27,27,28,28,29,29,30,30,31,31,32,32,33,33,34,34,35,35,36,36,37,37,38,38,39,39,40,40,41,41,42,42,43,43,44,44,45,45,46,46,47,47,49,49,50,50,51,51,52,52,53,53,54,54,55,55,56,56,57,57,58,58,59,59,60,60,61,61,62,62],"right_children":[2,4,6,8,10,12,14,16,18,20,22,24,26,28,30,32,34,36,38,40,42,44,46,48,50,52,54,56,58,60,62,64,66,68,70,72,74,76,78,80,82,84,86,88,90,92,94,96,-1,98,100,102,104,106,108,110,112,114,116,118,120,122,124,-1,-1,-1,-1,-1,-1,-1,-1,-1,-1,-1,-1,-1,-1,-1,-1,-1,-1,-1,-1,-1,-1,-1,-1,-1,-1,-1,-1,-1,-1,-1,-1,-1,-1,-1,-1,-1,-1,-1,-1,-1,-1,-1,-1,-1,-1,-1,-1,-1,-1,-1,-1,-1,-1,-1,-1,-1,-1,-1,-1,-1,-1],"split_conditions":[3.761E1,2.6944032E0,5.071006E-1,2E1,5.071006E-1,2.45E1,3.811E1,5.1E-1,2E0,1.45E0,2.3416666E1,3.2E0,1.6833334E1,1.14E2,1.6125E1,3.2E0,6E-1,2.475E1,7E0,3.4E0,1.20416664E2,1E0,1.5165751E0,1.41E1,8.391E1,3.7165E1,-7.5E-1,1.0582028E1,2.025E1,1.09E1,8.54E1,3E0,2.61E1,1.36E1,8.05E1,1.405E2,3.004E1,3.21E2,8.7E1,7.678E1,2.75E1,3.699E1,3.74E2,2.15E1,1.4083333E1,1.85E0,2.1479363E0,9.5E-1,-9.42502E-2,3.51E2,1.1547005E0,1.1E1,3.712E1,8.45E0,7.9E0,2.65E0,2E0,1.4041792E0,1.7E0,9.9916664E1,9.875E1,2.45E1,7.2E0,2.793514E-3,3.5822563E-2,-1.0451555E-1,5.7646334E-2,-5.216503E-2,-4.4597567E-5,2.3856042E-2,-7.613773E-2,1.834219E-2,-2.7326373E-2,-7.964423E-2,4.64869E-2,-1.0193751E-1,8.583572E-2,-1.3390747E-2,5.5014826E-2,-6.554916E-2,-3.5356995E-2,-8.315193E-2,7.3256515E-2,3.3876456E-2,-2.3027008E-2,-6.1284807E-2,5.2726667E-2,-3.6643412E-2,-1.0619747E-2,-2.1027083E-2,2.1565247E-2,-2.8138608E-2,1.407976E-2,6.281652E-2,2.7138699E-2,3.761002E-2,-4.462486E-2,-5.0199207E-2,4.688917E-2,-9.242558E-2,6.5101676E-2,-8.865146E-2,8.137875E-2,5.8809884E-2,-9.59781E-2,-6.196167E-2,6.662927E-2,-9.485727E-2,6.9630586E-2,5.5019405E-2,-1.02530256E-1,-7.709229E-2,2.7629515E-2,-2.0096866E-2,1.4544323E-2,-7.2913244E-3,3.6098137E-2,4.4072714E-2,-3.177653E-2,9.76547E-3,-7.480516E-2,5.0797343E-2,6.583294E-2,8.38558E-2,-1.0273179E-1],"split_indices":[2,25,35,49,35,14,2,9,7,18,49,23,49,15,49,18,9,49,14,25,43,53,40,30,33,41,7,28,49,28,29,7,29,30,33,43,33,31,20,33,8,41,31,14,49,22,44,18,0,31,40,28,33,16,16,22,23,48,22,39,39,14,28,0,0,0,0,0,0,0,0,0,0,0,0,0,0,0,0,0,0,0,0,0,0,0,0,0,0,0,0,0,0,0,0,0,0,0,0,0,0,0,0,0,0,0,0,0,0,0,0,0,0,0,0,0,0,0,0,0,0,0,0,0,0],"split_type":[0,0,0,0,0,0,0,0,0,0,0,0,0,0,0,0,0,0,0,0,0,0,0,0,0,0,0,0,0,0,0,0,0,0,0,0,0,0,0,0,0,0,0,0,0,0,0,0,0,0,0,0,0,0,0,0,0,0,0,0,0,0,0,0,0,0,0,0,0,0,0,0,0,0,0,0,0,0,0,0,0,0,0,0,0,0,0,0,0,0,0,0,0,0,0,0,0,0,0,0,0,0,0,0,0,0,0,0,0,0,0,0,0,0,0,0,0,0,0,0,0,0,0,0,0],"sum_hessian":[2.469359E5,1.8828553E5,5.8650375E4,5.017698E4,1.3810856E5,9.614862E3,4.903551E4,2.6850906E4,2.3326074E4,2.974603E4,1.0836252E5,7.2538667E3,2.360996E3,2.714532E4,2.1890193E4,1.5941949E4,1.0908956E4,1.6600938E4,6.725136E3,2.5105129E4,4.6409E3,9.037325E4,1.7989277E4,1.6050337E3,5.648833E3,3.1569522E2,2.0453008E3,8.836609E3,1.830871E4,2.7163708E3,1.9173822E4,1.3011668E4,2.9302815E3,7.833973E3,3.074983E3,1.0420052E4,6.1808857E3,7.306711E1,6.6520693E3,2.456261E4,5.4251917E2,3.3516694E3,1.2892303E3,7.721726E4,1.3155994E4,9.095898E3,8.893378E3,1.4425768E3,1.624569E2,5.193854E3,4.54979E2,8.42196E1,2.3147562E2,4.816192E2,1.5636815E3,5.3051396E3,3.5314697E3,9.768362E3,8.54035E3,1.934675E3,7.816957E2,1.9104863E4,6.8957924E1,9.194153E3,3.8175146E3,6.2015972E1,2.8682654E3,5.8680605E3,1.9659126E3,2.8816948E3,1.9328821E2,9.148339E3,1.2717135E3,1.0258477E2,6.078301E3,6.1844395E1,1.12227125E1,2.5194841E2,6.400121E3,1.7333605E4,7.2290054E3,1.435463E2,3.989729E2,2.2369026E3,1.1147668E3,1.1578201E3,1.314103E2,3.1562762E4,4.5654492E4,1.6632698E3,1.1492725E4,1.5073962E3,7.5885024E3,1.8749514E3,7.0184263E3,1.2769275E3,1.6564928E2,4.90486E3,2.8899393E2,7.0591125E1,3.8438788E2,1.1455305E1,7.276429E1,1.34854E1,2.1799022E2,2.5402168E2,2.275975E2,3.6902897E1,1.5267787E3,5.2757637E3,2.9375605E1,1.745054E2,3.3569644E3,2.8545466E3,6.9138154E3,5.4945325E2,7.990896E3,1.7355907E3,1.9908441E2,5.2817444E2,2.5352126E2,1.3907104E4,5.1977603E3,1.1176602E1,5.778132E1],"tree_param":{"num_deleted":"0","num_feature":"77","num_nodes":"125","size_leaf_vector":"1"}},{"base_weights":[2.7927563E-3,5.0599706E-1,-3.049047E-1,-8.4223986E-2,6.413643E-1,-4.6306756E-1,2.7493736E-1,-5.020904E-1,3.948576E-1,5.043706E-1,1.1071066E0,-5.575363E-1,2.683004E-1,-4.5454812E-1,3.9500132E-1,-6.8086976E-1,7.733518E-1,-3.6112982E-1,7.4370295E-1,2.0599146E-1,6.733145E-1,6.892189E-1,1.1823114E0,-8.7313E-1,-3.3719844E-1,-4.0217873E-1,4.364329E-1,7.2241366E-1,-7.1018195E-1,2.8349945E-1,8.9590794E-1,-8.73773E-1,5.565427E-1,1.4304044E0,-3.9772192E-1,-5.15054E-1,1.6719306E0,-6.6169995E-1,8.747282E-1,-8.091868E-2,4.3230987E-1,8.741688E-1,4.9537632E-1,-5.676577E-1,8.6120343E-1,3.8064495E-1,1.2097961E0,-6.0359913E-1,-1.1778524E0,-4.3134677E-1,4.595867E-1,-6.687034E-1,8.998613E-1,-8.610124E-2,6.332533E-1,-9.823063E-2,9.717438E-1,-8.50204E-1,1.3988124E0,4.4633996E-2,5.2027774E-1,3.9248157E-1,9.666511E-1,-4.9773935E-2,4.9571294E-2,3.8418353E-2,-9.241911E-2,7.8770936E-2,-9.1289386E-2,-6.94037E-2,8.1250615E-2,-3.5609357E-2,6.21556E-2,-8.723723E-2,9.433436E-2,4.7523167E-2,-9.254688E-2,-3.3261333E-2,4.8066396E-2,2.9760718E-3,-5.7297654E-2,2.5892407E-2,-3.2398988E-2,4.492038E-2,-7.954056E-2,1.9404301E-2,4.4510853E-2,6.3594948E-3,-9.685444E-2,2.5917385E-2,6.7499906E-2,-8.9291066E-2,5.6728847E-2,5.4762203E-2,6.825251E-2,-9.6703944E-4,-3.8001247E-2,-6.3179575E-2,-1.571298E-2,-1.4260495E-2,-3.805565E-2,-5.800566E-2,2.626708E-2,-5.6005605E-2,3.0523748E-3,7.107278E-2,-5.2167553E-2,4.8925262E-2,-1.5632054E-2,3.3265788E-2,-1.0330305E-1,4.242492E-3,8.015883E-2,7.148606E-2,-4.915077E-2,-9.0040706E-2,8.378386E-2,1.194817E-2,-1.8150086E-2,-6.4398624E-2,2.7916564E-2,3.8963318E-2,-4.3381903E-2,-4.4091403E-2,4.9901996E-2],"categories":[],"categories_nodes":[],"categories_segments":[],"categories_sizes":[],"default_left":[0,0,0,0,0,0,0,0,0,0,0,0,0,0,0,0,0,0,0,0,0,0,0,0,0,0,0,0,0,0,0,0,0,0,0,0,0,0,0,0,0,0,0,0,0,0,0,0,0,0,0,0,0,0,0,0,0,0,0,0,0,0,0,0,0,0,0,0,0,0,0,0,0,0,0,0,0,0,0,0,0,0,0,0,0,0,0,0,0,0,0,0,0,0,0,0,0,0,0,0,0,0,0,0,0,0,0,0,0,0,0,0,0,0,0,0,0,0,0,0,0,0,0,0,0],"id":4,"left_children":[1,3,5,7,9,11,13,15,17,19,21,23,25,27,29,31,33,35,37,39,41,43,45,47,49,51,53,55,57,59,61,63,65,67,69,71,73,75,77,79,81,83,85,87,89,91,93,95,97,99,101,103,105,107,109,-1,111,113,115,117,119,121,123,-1,-1,-1,-1,-1,-1,-1,-1,-1,-1,-1,-1,-1,-1,-1,-1,-1,-1,-1,-1,-1,-1,-1,-1,-1,-1,-1,-1,-1,-1,-1,-1,-1,-1,-1,-1,-1,-1,-1,-1,-1,-1,-1,-1,-1,-1,-1,-1,-1,-1,-1,-1,-1,-1,-1,-1,-1,-1,-1,-1,-1,-1],"loss_changes":[3.816782E4,7.473367E3,1.4028895E4,3.4938286E3,4.8540664E3,8.304029E3,2.8715437E3,2.1260752E3,2.14453E3,2.9636904E3,5.426465E2,7.401172E3,1.5500952E3,1.3946555E3,1.5720405E3,1.9521506E3,8.827168E2,8.044566E2,1.0251199E3,1.3803005E3,1.3412148E3,5.711205E2,3.224121E2,3.5933594E3,4.702216E3,9.5736975E2,1.1306321E3,5.56188E2,1.1255208E3,1.3023442E3,1.8214355E2,1.6067954E3,5.634725E2,3.497605E2,8.2925146E2,8.285293E2,1.3607932E2,9.125423E2,6.7941113E2,1.4022351E3,1.098427E3,1.0549648E3,8.429907E2,3.0316504E2,3.885144E2,7.978092E2,2.5047461E2,2.12238E3,1.5203066E3,2.7012314E3,7.0610095E2,7.541535E2,4.7673953E2,7.2591626E2,6.924795E2,0E0,4.2421667E2,1.0826829E3,2.133399E2,9.0822205E2,7.96437E2,3.0926355E2,2.6156543E2,0E0,0E0,0E0,0E0,0E0,0E0,0E0,0E0,0E0,0E0,0E0,0E0,0E0,0E0,0E0,0E0,0E0,0E0,0E0,0E0,0E0,0E0,0E0,0E0,0E0,0E0,0E0,0E0,0E0,0E0,0E0,0E0,0E0,0E0,0E0,0E0,0E0,0E0,0E0,0E0,0E0,0E0,0E0,0E0,0E0,0E0,0E0,0E0,0E0,0E0,0E0,0E0,0E0,0E0,0E0,0E0,0E0,0E0,0E0,0E0,0E0,0E0],"parents":[2147483647,0,0,1,1,2,2,3,3,4,4,5,5,6,6,7,7,8,8,9,9,10,10,11,11,12,12,13,13,14,14,15,15,16,16,17,17,18,18,19,19,20,20,21,21,22,22,23,23,24,24,25,25,26,26,27,27,28,28,29,29,30,30,31,31,32,32,33,33,34,34,35,35,36,36,37,37,38,38,39,39,40,40,41,41,42,42,43,43,44,44,45,45,46,46,47,47,48,48,49,49,50,50,51,51,52,52,53,53,54,54,56,56,57,57,58,58,59,59,60,60,61,61,62,62],"right_children":[2,4,6,8,10,12,14,16,18,20,22,24,26,28,30,32,34,36,38,40,42,44,46,48,50,52,54,56,58,60,62,64,66,68,70,72,74,76,78,80,82,84,86,88,90,92,94,96,98,100,102,104,106,108,110,-1,112,114,116,118,120,122,124,-1,-1,-1,-1,-1,-1,-1,-1,-1,-1,-1,-1,-1,-1,-1,-1,-1,-1,-1,-1,-1,-1,-1,-1,-1,-1,-1,-1,-1,-1,-1,-1,-1,-1,-1,-1,-1,-1,-1,-1,-1,-1,-1,-1,-1,-1,-1,-1,-1,-1,-1,-1,-1,-1,-1,-1,-1,-1,-1,-1,-1,-1],"split_conditions":[2.3E0,5.071006E-1,2.2666666E1,2.25E1,3.789E1,3.783E1,5.071006E-1,2.5833334E1,7.39E0,1.763673E1,1.65E1,2E1,5.071006E-1,1.14E2,1E0,2.73E2,3.1E0,4.51E2,1.4958333E1,1.95E1,2.08E2,4.082483E-1,7E0,3.5885727E0,2.7E0,8.45E0,1.9623116E-1,9.4833336E1,1.24E2,2.5583334E1,5.477226E-1,1.7E0,4.65E0,7.166E1,8.391E1,6.2E0,1.55E0,4.9E1,7.45E1,8.7E0,8.178E1,6.3E0,2.5333334E1,3.95E1,1.4899665E1,1.2247449E0,3.839E1,5.1E1,2.9E0,1.255E2,3.5705E1,2.4346708E1,1.75E2,6.3E0,8.495E1,-9.823063E-2,9.675E1,1.9E0,7.2666664E1,8.367E1,8.05E1,6E1,8.05E1,-4.9773935E-2,4.9571294E-2,3.8418353E-2,-9.241911E-2,7.8770936E-2,-9.1289386E-2,-6.94037E-2,8.1250615E-2,-3.5609357E-2,6.21556E-2,-8.723723E-2,9.433436E-2,4.7523167E-2,-9.254688E-2,-3.3261333E-2,4.8066396E-2,2.9760718E-3,-5.7297654E-2,2.5892407E-2,-3.2398988E-2,4.492038E-2,-7.954056E-2,1.9404301E-2,4.4510853E-2,6.3594948E-3,-9.685444E-2,2.5917385E-2,6.7499906E-2,-8.9291066E-2,5.6728847E-2,5.4762203E-2,6.825251E-2,-9.6703944E-4,-3.8001247E-2,-6.3179575E-2,-1.571298E-2,-1.4260495E-2,-3.805565E-2,-5.800566E-2,2.626708E-2,-5.6005605E-2,3.0523748E-3,7.107278E-2,-5.2167553E-2,4.8925262E-2,-1.5632054E-2,3.3265788E-2,-1.0330305E-1,4.242492E-3,8.015883E-2,7.148606E-2,-4.915077E-2,-9.0040706E-2,8.378386E-2,1.194817E-2,-1.8150086E-2,-6.4398624E-2,2.7916564E-2,3.8963318E-2,-4.3381903E-2,-4.4091403E-2,4.9901996E-2],"split_indices":[21,35,49,14,2,2,35,49,10,49,49,14,35,15,53,32,23,32,49,14,13,40,14,23,21,16,42,39,37,49,40,18,24,33,33,23,18,13,12,16,33,18,49,11,44,40,2,13,21,3,41,14,32,30,33,0,37,23,45,4,12,5,12,0,0,0,0,0,0,0,0,0,0,0,0,0,0,0,0,0,0,0,0,0,0,0,0,0,0,0,0,0,0,0,0,0,0,0,0,0,0,0,0,0,0,0,0,0,0,0,0,0,0,0,0,0,0,0,0,0,0,0,0,0,0],"split_type":[0,0,0,0,0,0,0,0,0,0,0,0,0,0,0,0,0,0,0,0,0,0,0,0,0,0,0,0,0,0,0,0,0,0,0,0,0,0,0,0,0,0,0,0,0,0,0,0,0,0,0,0,0,0,0,0,0,0,0,0,0,0,0,0,0,0,0,0,0,0,0,0,0,0,0,0,0,0,0,0,0,0,0,0,0,0,0,0,0,0,0,0,0,0,0,0,0,0,0,0,0,0,0,0,0,0,0,0,0,0,0,0,0,0,0,0,0,0,0,0,0,0,0,0,0],"sum_hessian":[2.4650495E5,9.35363E4,1.5296866E5,1.745039E4,7.608591E4,1.2018588E5,3.278277E4,9.320649E3,8.1297417E3,5.8794234E4,1.7291674E4,1.0643784E5,1.3748037E4,4.6326846E3,2.8150084E4,8.1751943E3,1.145455E3,2.5669138E3,5.562828E3,2.125575E4,3.7538484E4,2.6388171E3,1.4652856E4,4.3758637E4,6.267921E4,2.7560525E3,1.0991985E4,8.263352E2,3.8063494E3,2.302605E4,5.124034E3,7.07288E3,1.1023145E3,7.336215E2,4.1183344E2,2.3869436E3,1.7997018E2,4.740477E2,5.0887803E3,9.373432E3,1.1882318E4,1.7631908E4,1.9906574E4,3.173437E2,2.3214736E3,4.8620367E2,1.4166653E4,2.3221713E4,2.0536924E4,5.605607E4,6.6231406E3,2.2881582E3,4.6789432E2,3.007637E3,7.9843477E3,6.958114E1,7.56754E2,3.5699287E3,2.364206E2,1.1463097E4,1.1562953E4,6.321361E2,4.491898E3,6.640076E3,4.3280396E2,1.0137081E3,8.860631E1,7.028369E2,3.0784603E1,2.7668118E2,1.3515227E2,2.1468271E3,2.4011658E2,1.0221807E1,1.6974838E2,2.0132574E2,2.7272192E2,2.7057706E2,4.818203E3,8.282243E3,1.0911888E3,1.10109795E4,8.713385E2,1.7460846E4,1.7106174E2,1.5654698E4,4.2518765E3,2.1112582E2,1.0621786E2,1.3656351E3,9.558384E2,1.2516534E2,3.6103836E2,8.1565317E3,6.010121E3,4.9044517E3,1.8317262E4,1.8681703E4,1.85522E3,3.884407E4,1.7211998E4,2.5774008E2,6.3654004E3,1.4133525E3,8.7480554E2,3.6909177E2,9.8802574E1,5.271266E2,2.4805105E3,7.8913677E3,9.298008E1,3.1518616E2,4.415679E2,1.9597266E2,3.373956E3,1.8389977E1,2.1803061E2,7.7628022E3,3.7002942E3,2.3764272E2,1.1325311E4,4.8396735E2,1.4816876E2,7.455046E1,4.417347E3],"tree_param":{"num_deleted":"0","num_feature":"77","num_nodes":"125","size_leaf_vector":"1"}},{"base_weights":[4.668733E-3,4.7602022E-1,-2.9340428E-1,-8.302793E-2,6.0420376E-1,-4.146675E-1,3.8641083E-1,-5.302723E-1,4.125702E-1,4.7371536E-1,1.053742E0,-5.0216705E-1,2.3533452E-1,7.752735E-2,5.4325455E-1,-6.8307275E-1,6.7048407E-1,-2.3980205E-1,7.2406363E-1,7.3173714E-1,3.0226266E-1,6.215517E-1,1.1311429E0,-5.9828985E-1,1.0961328E-1,-7.6622896E-2,5.5605465E-1,-1.5145907E-1,6.0213864E-1,4.2673507E-1,9.502339E-1,-8.382813E-1,4.0399745E-1,1.0156264E0,-1.5514405E0,-1.0724387E0,1.3712321E-1,1.0773029E0,2.3064587E-1,5.4575294E-1,9.32923E-1,-9.412317E-3,4.5044369E-1,2.6263523E-1,1.1943955E0,9.8583907E-1,1.2852765E0,-8.8824457E-1,-3.5051173E-1,1.1054121E0,-6.406037E-2,6.1944133E-1,-3.225508E-1,-1.0278299E-1,5.930902E-1,-6.99313E-1,2.2493276E-1,7.463257E-1,-1.0208187E-1,4.5176965E-1,-1.03950694E-1,1.0222827E0,-1.5775926E0,-4.748809E-2,5.352971E-2,-3.7452176E-2,5.8571797E-2,-2.2530328E-2,6.176225E-2,-9.175455E-2,3.9394986E-2,-7.464933E-2,3.2842677E-2,-4.2595863E-3,7.1908824E-2,5.6510944E-2,-1.0163926E-1,4.8175883E-2,-3.3952374E-2,1.6613064E-2,4.3237384E-2,4.7598142E-2,-1.0131015E-1,9.689666E-3,-3.860947E-2,1.789436E-2,4.1883092E-2,-1.1929722E-3,4.8203044E-2,-1.0404278E-1,6.318981E-2,-7.0587494E-3,5.11553E-2,6.5957956E-2,2.3499591E-2,-4.9261864E-2,-1.2346004E-2,-8.3357785E-3,-3.3699363E-2,6.1921895E-2,-1.5319285E-2,-4.345768E-2,7.273269E-3,-1.4064062E-3,6.5178625E-2,-2.9736867E-2,2.0747313E-2,3.150577E-2,-1.0193973E-1,9.635048E-3,-6.1367054E-2,-3.152635E-2,2.5815327E-2,4.9424276E-2,-6.92106E-3,-2.1979414E-2,2.606745E-2,-1.03398405E-1,5.371513E-2,-1.0241301E-1,8.61051E-2],"categories":[],"categories_nodes":[],"categories_segments":[],"categories_sizes":[],"default_left":[0,0,0,0,0,0,0,0,0,0,0,0,0,0,0,0,0,0,0,0,0,0,0,0,0,0,0,0,0,0,0,0,0,0,0,0,0,0,0,0,0,0,0,0,0,0,0,0,0,0,0,0,0,0,0,0,0,0,0,0,0,0,0,0,0,0,0,0,0,0,0,0,0,0,0,0,0,0,0,0,0,0,0,0,0,0,0,0,0,0,0,0,0,0,0,0,0,0,0,0,0,0,0,0,0,0,0,0,0,0,0,0,0,0,0,0,0,0,0,0,0],"id":5,"left_children":[1,3,5,7,9,11,13,15,17,19,21,23,25,27,29,31,33,35,37,39,41,43,45,47,49,51,53,55,57,59,61,63,65,67,69,71,73,75,77,79,81,83,85,87,89,91,93,95,97,99,101,103,105,-1,107,109,111,113,-1,115,-1,117,119,-1,-1,-1,-1,-1,-1,-1,-1,-1,-1,-1,-1,-1,-1,-1,-1,-1,-1,-1,-1,-1,-1,-1,-1,-1,-1,-1,-1,-1,-1,-1,-1,-1,-1,-1,-1,-1,-1,-1,-1,-1,-1,-1,-1,-1,-1,-1,-1,-1,-1,-1,-1,-1,-1,-1,-1,-1,-1],"loss_changes":[3.4527586E4,6.8224434E3,1.2410894E4,3.9364492E3,4.5424785E3,7.266459E3,1.1040452E3,1.7132175E3,1.7121001E3,2.655208E3,5.821074E2,6.6217715E3,1.5166704E3,9.222175E2,7.163496E2,1.3976533E3,8.101139E2,8.548272E2,9.936052E2,8.960967E2,1.6655938E3,5.442174E2,3.2963086E2,6.991082E3,2.644489E3,1.315752E3,7.2419165E2,1.102232E3,8.907279E2,7.3816626E2,6.14177E2,1.5432705E3,9.170752E2,2.9460883E2,9.576962E1,6.1823175E2,5.426096E2,5.491489E2,1.5875752E3,8.4786206E2,6.50376E2,1.801566E3,8.757246E2,3.274881E2,2.3446045E2,3.1974854E2,1.973418E2,2.7889453E3,3.1196797E3,4.268479E2,2.1965762E3,8.890563E2,1.1403135E3,0E0,7.195283E2,1.0255012E3,7.9016187E2,4.7421863E2,0E0,7.219502E2,0E0,5.2801514E2,1.4889513E2,0E0,0E0,0E0,0E0,0E0,0E0,0E0,0E0,0E0,0E0,0E0,0E0,0E0,0E0,0E0,0E0,0E0,0E0,0E0,0E0,0E0,0E0,0E0,0E0,0E0,0E0,0E0,0E0,0E0,0E0,0E0,0E0,0E0,0E0,0E0,0E0,0E0,0E0,0E0,0E0,0E0,0E0,0E0,0E0,0E0,0E0,0E0,0E0,0E0,0E0,0E0,0E0,0E0,0E0,0E0,0E0,0E0,0E0],"parents":[2147483647,0,0,1,1,2,2,3,3,4,4,5,5,6,6,7,7,8,8,9,9,10,10,11,11,12,12,13,13,14,14,15,15,16,16,17,17,18,18,19,19,20,20,21,21,22,22,23,23,24,24,25,25,26,26,27,27,28,28,29,29,30,30,31,31,32,32,33,33,34,34,35,35,36,36,37,37,38,38,39,39,40,40,41,41,42,42,43,43,44,44,45,45,46,46,47,47,48,48,49,49,50,50,51,51,52,52,54,54,55,55,56,56,57,57,59,59,61,61,62,62],"right_children":[2,4,6,8,10,12,14,16,18,20,22,24,26,28,30,32,34,36,38,40,42,44,46,48,50,52,54,56,58,60,62,64,66,68,70,72,74,76,78,80,82,84,86,88,90,92,94,96,98,100,102,104,106,-1,108,110,112,114,-1,116,-1,118,120,-1,-1,-1,-1,-1,-1,-1,-1,-1,-1,-1,-1,-1,-1,-1,-1,-1,-1,-1,-1,-1,-1,-1,-1,-1,-1,-1,-1,-1,-1,-1,-1,-1,-1,-1,-1,-1,-1,-1,-1,-1,-1,-1,-1,-1,-1,-1,-1,-1,-1,-1,-1,-1,-1,-1,-1,-1,-1],"split_conditions":[2.4E0,5.071006E-1,2.4166666E1,2.25E1,3.789E1,2.6E0,1.85E1,2.6E1,7.39E0,1.9E0,1.65E1,3.772E1,2.4E1,3.7716667E1,2.5E0,2.73E2,1.65E0,1.1936604E1,4.15E0,2E1,1.6916666E1,1.4899665E1,3.833E1,2.25E1,6.5E0,8E1,2.2E0,1.20833336E2,3.59E1,2.41E2,4.131182E0,1.75E0,2.5E-1,3.5777087E0,9.165152E0,2.36E2,4.12E2,9.9833336E1,2.89E2,9.15E1,6.5E0,1.3183333E2,1E0,2.64E2,-2E0,7E0,1.24E2,7.44E0,1.21E2,1.12E1,5.071006E-1,1.3E0,1.05E2,-1.0278299E-1,5.08E2,3.85E1,1E1,1.24E1,-1.0208187E-1,7.2E0,-1.03950694E-1,7.4E0,8.5E0,-4.748809E-2,5.352971E-2,-3.7452176E-2,5.8571797E-2,-2.2530328E-2,6.176225E-2,-9.175455E-2,3.9394986E-2,-7.464933E-2,3.2842677E-2,-4.2595863E-3,7.1908824E-2,5.6510944E-2,-1.0163926E-1,4.8175883E-2,-3.3952374E-2,1.6613064E-2,4.3237384E-2,4.7598142E-2,-1.0131015E-1,9.689666E-3,-3.860947E-2,1.789436E-2,4.1883092E-2,-1.1929722E-3,4.8203044E-2,-1.0404278E-1,6.318981E-2,-7.0587494E-3,5.11553E-2,6.5957956E-2,2.3499591E-2,-4.9261864E-2,-1.2346004E-2,-8.3357785E-3,-3.3699363E-2,6.1921895E-2,-1.5319285E-2,-4.345768E-2,7.273269E-3,-1.4064062E-3,6.5178625E-2,-2.9736867E-2,2.0747313E-2,3.150577E-2,-1.0193973E-1,9.635048E-3,-6.1367054E-2,-3.152635E-2,2.5815327E-2,4.9424276E-2,-6.92106E-3,-2.1979414E-2,2.606745E-2,-1.03398405E-1,5.371513E-2,-1.0241301E-1,8.61051E-2],"split_indices":[21,35,49,14,2,21,14,49,10,25,49,2,14,41,21,32,21,30,24,49,49,44,2,14,30,13,19,43,27,15,40,18,7,38,50,32,13,39,13,12,18,43,54,32,7,14,37,10,43,28,35,25,0,0,31,11,30,30,0,30,0,26,7,0,0,0,0,0,0,0,0,0,0,0,0,0,0,0,0,0,0,0,0,0,0,0,0,0,0,0,0,0,0,0,0,0,0,0,0,0,0,0,0,0,0,0,0,0,0,0,0,0,0,0,0,0,0,0,0,0,0],"split_type":[0,0,0,0,0,0,0,0,0,0,0,0,0,0,0,0,0,0,0,0,0,0,0,0,0,0,0,0,0,0,0,0,0,0,0,0,0,0,0,0,0,0,0,0,0,0,0,0,0,0,0,0,0,0,0,0,0,0,0,0,0,0,0,0,0,0,0,0,0,0,0,0,0,0,0,0,0,0,0,0,0,0,0,0,0,0,0,0,0,0,0,0,0,0,0,0,0,0,0,0,0,0,0,0,0,0,0,0,0,0,0,0,0,0,0,0,0,0,0,0,0],"sum_hessian":[2.4575092E5,9.520302E4,1.5054789E5,1.7757486E4,7.744554E4,1.2775905E5,2.2788854E4,9.334054E3,8.423433E3,6.0024234E4,1.7421303E4,1.126015E5,1.5157545E4,7.675143E3,1.5113711E4,8.280732E3,1.053321E3,2.7222837E3,5.7011494E3,2.3961277E4,3.6062957E4,2.6474578E3,1.4773845E4,9.73119E4,1.5289602E4,7.684126E3,7.4734185E3,5.3434873E3,2.3316558E3,1.1751319E4,3.3623918E3,7.24635E3,1.0343826E3,9.121719E2,1.4114922E2,8.477466E2,1.8745371E3,3.3218462E3,2.3793032E3,1.2452971E4,1.1508308E4,1.1620995E4,2.444196E4,1.6285469E3,1.0189109E3,7.608555E3,7.1652896E3,4.483847E4,5.247343E4,2.2698003E3,1.3019801E4,2.0057146E3,5.678411E3,1.0373326E2,7.3696855E3,2.175744E3,3.1677437E3,2.2117485E3,1.1990727E2,1.1635887E4,1.1543271E2,3.2697908E3,9.2600914E1,6.846981E3,3.9936905E2,4.133569E2,6.210257E2,1.1869304E2,7.934788E2,1.26077576E2,1.5071646E1,6.8202185E2,1.6572473E2,1.601772E3,2.727651E2,3.266899E3,5.494737E1,1.3176844E3,1.0616188E3,7.4613804E3,4.9915903E3,1.1435407E4,7.289999E1,9.176974E3,2.4440217E3,1.9728254E4,4.7137075E3,1.1569578E3,4.715891E2,2.054077E1,9.983701E2,2.434492E2,7.365106E3,6.8787935E3,2.864959E2,3.8947574E4,5.890894E3,3.346207E4,1.901136E4,2.0744585E3,1.953417E2,2.6880276E3,1.0331773E4,1.0308833E3,9.7483136E2,4.1477886E3,1.5306226E3,7.2681973E3,1.0148792E2,8.092643E2,1.3664797E3,8.045268E2,2.3632168E3,1.736376E3,4.7537244E2,8.4214404E2,1.0793742E4,5.348933E1,3.2163015E3,8.137312E1,1.1227788E1],"tree_param":{"num_deleted":"0","num_feature":"77","num_nodes":"121","size_leaf_vector":"1"}},{"base_weights":[-1.3461325E-3,4.3673488E-1,-2.8345886E-1,-9.4496235E-2,5.6089956E-1,-4.6294966E-1,1.1970238E-1,5.3277117E-1,-4.1999647E-1,4.0134746E-1,8.846112E-1,-7.571765E-1,-2.6352036E-1,-1.5577261E-2,5.872707E-1,3.4705403E-1,1.2602125E0,-5.371637E-1,9.4146025E-1,6.609102E-1,2.5132865E-1,7.809915E-1,1.1685739E0,-8.794703E-1,-4.2515E-2,-3.6000755E-1,4.425733E-1,-3.0089152E-1,2.3326334E-1,-1.3631892E-1,6.859927E-1,-3.5471645E-1,6.782687E-1,-9.8002724E-2,1.3223406E0,-6.243101E-1,9.228202E-1,1.0587724E0,-9.851714E-2,5.7133645E-1,1.053565E0,3.8107213E-1,-1.4704111E-1,6.1758375E-1,9.584593E-1,1.1785824E0,-1.0829093E-1,-3.6894014E-1,-1.0493853E0,3.8238838E-1,-7.512846E-1,-4.3564638E-1,3.3342096E-1,5.236759E-1,-5.365682E-1,5.239358E-1,-4.217816E-1,8.366519E-1,8.6060286E-2,7.866302E-1,-6.928735E-1,3.686621E-1,8.3962387E-1,2.9928649E-2,-5.5170912E-2,7.07106E-3,4.9885135E-2,6.906049E-2,-9.622447E-2,-4.1719254E-2,9.257039E-4,-5.197112E-2,6.5165915E-2,-8.7645486E-2,5.861531E-2,-1.0679936E-1,2.9252712E-2,-1.9603325E-2,5.5346638E-2,8.499987E-3,2.9714843E-2,-2.0888094E-2,2.6094249E-2,4.488733E-3,3.583364E-2,2.47066E-2,5.2072257E-2,5.3242892E-2,7.013294E-2,-4.3217294E-2,-1.540534E-4,-3.1116579E-2,-6.061999E-2,2.9762287E-2,-3.7700165E-2,-6.753814E-2,-2.0950846E-3,-2.6948774E-2,5.434907E-4,-3.5595436E-2,2.4377726E-2,1.35421455E-2,5.1208515E-2,3.4703124E-2,-7.544186E-2,-2.9933403E-4,4.4587083E-2,-5.7102438E-2,-1.2093618E-2,5.0507855E-2,-1.1360195E-2,6.8447515E-3,-6.9213964E-2,6.675994E-2,-4.5957074E-2,-6.536186E-2,3.8936403E-2,2.7828405E-2,-4.4436127E-2,-1.03698134E-1,4.3139677E-2],"categories":[],"categories_nodes":[],"categories_segments":[],"categories_sizes":[],"default_left":[0,0,0,0,0,0,0,0,0,0,0,0,0,0,0,0,0,0,0,0,0,0,0,0,0,0,0,0,0,0,0,0,0,0,0,0,0,0,0,0,0,0,0,0,0,0,0,0,0,0,0,0,0,0,0,0,0,0,0,0,0,0,0,0,0,0,0,0,0,0,0,0,0,0,0,0,0,0,0,0,0,0,0,0,0,0,0,0,0,0,0,0,0,0,0,0,0,0,0,0,0,0,0,0,0,0,0,0,0,0,0,0,0,0,0,0,0,0,0,0,0],"id":6,"left_children":[1,3,5,7,9,11,13,15,17,19,21,23,25,27,29,31,33,35,37,39,41,43,45,47,49,51,53,55,57,59,61,63,65,-1,67,69,71,73,-1,75,77,79,81,83,85,87,-1,89,91,93,95,97,99,101,103,105,107,109,111,113,115,117,119,-1,-1,-1,-1,-1,-1,-1,-1,-1,-1,-1,-1,-1,-1,-1,-1,-1,-1,-1,-1,-1,-1,-1,-1,-1,-1,-1,-1,-1,-1,-1,-1,-1,-1,-1,-1,-1,-1,-1,-1,-1,-1,-1,-1,-1,-1,-1,-1,-1,-1,-1,-1,-1,-1,-1,-1,-1,-1],"loss_changes":[3.022387E4,6.318752E3,1.0764681E4,3.7058796E3,4.010045E3,6.0395605E3,2.8986606E3,8.372971E2,1.9066555E3,2.0252041E3,7.533711E2,3.6341914E3,4.179897E3,2.5236233E3,7.346929E2,1.1487485E3,2.5482996E2,1.4005366E3,3.2565515E2,6.694365E2,1.7038284E3,5.4414844E2,2.3120215E2,3.079662E3,1.8304086E3,2.8311553E3,5.860209E2,1.6513727E3,1.6862896E3,6.3514636E2,4.4085352E2,1.1319103E3,5.75573E2,0E0,2.3918994E2,1.4022827E3,4.6440527E2,2.9293207E2,0E0,5.7741797E2,2.733484E2,1.1190085E3,1.4669019E3,5.1155737E2,3.463955E2,1.7259473E2,0E0,1.6072849E3,1.8537734E3,9.1961536E2,9.6867957E2,2.245417E3,8.557527E2,8.617661E2,6.7673737E2,4.1265833E2,1.871262E3,6.875066E2,1.1410702E3,4.3653476E2,6.982741E2,6.983614E2,4.133418E2,0E0,0E0,0E0,0E0,0E0,0E0,0E0,0E0,0E0,0E0,0E0,0E0,0E0,0E0,0E0,0E0,0E0,0E0,0E0,0E0,0E0,0E0,0E0,0E0,0E0,0E0,0E0,0E0,0E0,0E0,0E0,0E0,0E0,0E0,0E0,0E0,0E0,0E0,0E0,0E0,0E0,0E0,0E0,0E0,0E0,0E0,0E0,0E0,0E0,0E0,0E0,0E0,0E0,0E0,0E0,0E0,0E0,0E0],"parents":[2147483647,0,0,1,1,2,2,3,3,4,4,5,5,6,6,7,7,8,8,9,9,10,10,11,11,12,12,13,13,14,14,15,15,16,16,17,17,18,18,19,19,20,20,21,21,22,22,23,23,24,24,25,25,26,26,27,27,28,28,29,29,30,30,31,31,32,32,34,34,35,35,36,36,37,37,39,39,40,40,41,41,42,42,43,43,44,44,45,45,47,47,48,48,49,49,50,50,51,51,52,52,53,53,54,54,55,55,56,56,57,57,58,58,59,59,60,60,61,61,62,62],"right_children":[2,4,6,8,10,12,14,16,18,20,22,24,26,28,30,32,34,36,38,40,42,44,46,48,50,52,54,56,58,60,62,64,66,-1,68,70,72,74,-1,76,78,80,82,84,86,88,-1,90,92,94,96,98,100,102,104,106,108,110,112,114,116,118,120,-1,-1,-1,-1,-1,-1,-1,-1,-1,-1,-1,-1,-1,-1,-1,-1,-1,-1,-1,-1,-1,-1,-1,-1,-1,-1,-1,-1,-1,-1,-1,-1,-1,-1,-1,-1,-1,-1,-1,-1,-1,-1,-1,-1,-1,-1,-1,-1,-1,-1,-1,-1,-1,-1,-1,-1,-1,-1],"split_conditions":[2.4692028E0,5.071006E-1,9.45E1,2.4E0,3.761E1,1.95E1,3.783E1,3.74E2,3.4E0,1.4E0,3.839E1,3.772E1,2.5E0,2.3E1,3.644E1,1.15E1,8.1E0,3.833E1,1.25666664E2,1.225833E1,1.3133333E2,1.85E1,1.69E1,3.95E1,3.45E0,3E0,6.3E0,6.6E1,1.14E2,1.4E2,2.410325E-1,2.9225165E2,2.4E1,-9.8002724E-2,1.91E1,5.3E-1,1.45E1,1.95E1,-9.851714E-2,9.288186E0,3.9E-1,2.4346708E1,3.7305E1,2.25E1,-2.5E0,2.45E1,-1.0829093E-1,5.071006E-1,2.85E0,1.21E1,3.6E0,3.733E1,2.88E1,4.25E1,2.08E2,6.039E1,5.071006E-1,8.967E1,8.495E1,2.4094475E1,4.45E1,9.63E1,9.288186E0,2.9928649E-2,-5.5170912E-2,7.07106E-3,4.9885135E-2,6.906049E-2,-9.622447E-2,-4.1719254E-2,9.257039E-4,-5.197112E-2,6.5165915E-2,-8.7645486E-2,5.861531E-2,-1.0679936E-1,2.9252712E-2,-1.9603325E-2,5.5346638E-2,8.499987E-3,2.9714843E-2,-2.0888094E-2,2.6094249E-2,4.488733E-3,3.583364E-2,2.47066E-2,5.2072257E-2,5.3242892E-2,7.013294E-2,-4.3217294E-2,-1.540534E-4,-3.1116579E-2,-6.061999E-2,2.9762287E-2,-3.7700165E-2,-6.753814E-2,-2.0950846E-3,-2.6948774E-2,5.434907E-4,-3.5595436E-2,2.4377726E-2,1.35421455E-2,5.1208515E-2,3.4703124E-2,-7.544186E-2,-2.9933403E-4,4.4587083E-2,-5.7102438E-2,-1.2093618E-2,5.0507855E-2,-1.1360195E-2,6.8447515E-3,-6.9213964E-2,6.675994E-2,-4.5957074E-2,-6.536186E-2,3.8936403E-2,2.7828405E-2,-4.4436127E-2,-1.03698134E-1,4.3139677E-2],"split_indices":[21,35,0,25,2,14,2,31,25,25,2,2,21,14,33,30,30,2,43,46,43,14,26,11,23,7,23,15,15,32,42,31,14,0,30,9,14,14,0,26,9,14,41,8,7,14,0,35,23,28,23,2,29,14,31,33,35,4,33,8,11,12,26,0,0,0,0,0,0,0,0,0,0,0,0,0,0,0,0,0,0,0,0,0,0,0,0,0,0,0,0,0,0,0,0,0,0,0,0,0,0,0,0,0,0,0,0,0,0,0,0,0,0,0,0,0,0,0,0,0,0],"split_type":[0,0,0,0,0,0,0,0,0,0,0,0,0,0,0,0,0,0,0,0,0,0,0,0,0,0,0,0,0,0,0,0,0,0,0,0,0,0,0,0,0,0,0,0,0,0,0,0,0,0,0,0,0,0,0,0,0,0,0,0,0,0,0,0,0,0,0,0,0,0,0,0,0,0,0,0,0,0,0,0,0,0,0,0,0,0,0,0,0,0,0,0,0,0,0,0,0,0,0,0,0,0,0,0,0,0,0,0,0,0,0,0,0,0,0,0,0,0,0,0,0],"sum_hessian":[2.4455095E5,9.579475E4,1.487562E5,1.814835E4,7.764641E4,1.02930516E5,4.5825688E4,6.1999224E3,1.1948428E4,5.201253E4,2.5633873E4,4.158118E4,6.134934E4,3.5543113E4,1.0282577E4,4.940166E3,1.2597563E3,1.1002184E4,9.462444E2,1.9049555E4,3.2962977E4,1.8783432E4,6.8504395E3,3.5505242E4,6.075935E3,5.397428E4,7.375059E3,1.6557965E4,1.8985146E4,1.2344221E3,9.048155E3,1.5839839E3,3.356182E3,2.3266027E1,1.2364904E3,1.0382995E4,6.1918805E2,9.102098E2,3.6034584E1,1.5513106E4,3.5364485E3,2.4864875E4,8.0981006E3,9.781428E3,9.002005E3,6.8305835E3,1.9856249E1,8.866858E3,2.6638385E4,3.7989478E3,2.2769873E3,4.866617E4,5.3081084E3,6.8113384E3,5.637204E2,2.1161614E3,1.4441803E4,3.7223735E3,1.5262773E4,4.642051E2,7.70217E2,2.9526824E3,6.095473E3,6.9687885E2,8.87105E2,1.2525548E3,2.1036272E3,1.2150348E3,2.1455534E1,7.825367E3,2.5576287E3,1.00284645E2,5.1890344E2,3.4766712E1,8.7544305E2,7.7427185E1,1.543568E4,1.25679665E2,3.4107688E3,1.2496408E4,1.2368467E4,5.765232E3,2.3328684E3,1.546377E3,8.235051E3,1.3659745E3,7.6360303E3,4.534805E3,2.2957786E3,3.7659988E3,5.1008594E3,7.360555E3,1.927783E4,3.2000273E3,5.9892035E2,1.2336025E3,1.0433848E3,3.952047E4,9.145705E3,6.816381E2,4.62647E3,4.5263296E3,2.285009E3,2.4892918E2,3.147912E2,8.674098E2,1.2487516E3,2.8852703E3,1.1556533E4,3.2004585E3,5.219151E2,1.4753598E4,5.0917615E2,3.5141037E2,1.1279474E2,5.434495E2,2.2676744E2,2.5692815E3,3.83401E2,4.7392124E1,6.048081E3],"tree_param":{"num_deleted":"0","num_feature":"77","num_nodes":"121","size_leaf_vector":"1"}},{"base_weights":[-6.793873E-3,4.2374772E-1,-2.8732648E-1,3.0139056E-1,9.4125634E-1,-4.1195896E-1,2.8853586E-1,6.0754466E-1,1.00086555E-1,4.1775128E-1,1.0107406E0,-4.9546337E-1,2.3265162E-1,-3.3050346E-1,3.8644284E-1,2.6787862E-1,7.8059477E-1,-5.215396E-1,2.7624932E-1,-5.0348423E-2,1.02743E0,7.961856E-1,1.1086588E0,-7.529884E-1,-2.5596637E-1,-3.567724E-1,3.7563333E-1,1.0788435E0,-5.0279564E-1,9.214434E-1,2.9147023E-1,1.1207026E-1,8.904237E-1,7.9652774E-1,-1.6779768E0,-6.5204465E-1,8.635683E-1,-1.6068223E-4,4.0857226E-1,-5.1328623E-1,6.577814E-1,-7.561173E-1,1.1544192E0,9.8264116E-1,2.649253E-1,-2.0774241E-1,1.1260269E0,-1.3093786E-1,-8.5433936E-1,6.7113675E-2,-4.5862994E-1,-7.91124E-1,3.2412928E-1,4.0830308E-1,-1.0072601E-1,1.5279826E0,-8.9699894E-2,-9.6915555E-1,3.672096E-1,-8.959942E-1,1.01531E0,8.1693625E-1,1.7902589E-1,1.0302803E-2,-7.248933E-2,4.751082E-2,-1.07746914E-1,3.408253E-2,5.22801E-2,8.951592E-2,-1.0089552E-1,-4.420008E-2,1.1203581E-3,-4.8365425E-2,5.260104E-2,9.208742E-3,-3.4362238E-2,1.588618E-2,4.0418234E-2,1.6364312E-2,-6.223881E-2,-4.453502E-2,4.8440177E-2,6.731817E-2,-1.0259061E-1,-9.583234E-2,5.9979197E-2,-1.077561E-1,5.0232984E-2,-1.9634627E-2,4.6726033E-2,-1.14602104E-1,5.2314233E-2,-9.509947E-2,5.660204E-2,-1.7297754E-2,3.1961676E-2,-4.718074E-2,-1.46019E-2,-3.5265589E-3,3.862643E-2,-2.8096989E-2,1.1980733E-3,7.587907E-2,-4.8567172E-2,-4.9476374E-2,3.5145737E-2,2.9037768E-2,-8.335271E-4,-8.799432E-2,8.5028656E-2,-5.64538E-2,6.917269E-2,-8.6386755E-2,4.7057416E-2,1.9331424E-2,-9.7941756E-2,-1.0315212E-1,5.3110927E-2,-9.951316E-2,4.3028235E-2,2.0580941E-3,3.1688683E-2],"categories":[],"categories_nodes":[],"categories_segments":[],"categories_sizes":[],"default_left":[0,0,0,0,0,0,0,0,0,0,0,0,0,0,0,0,0,0,0,0,0,0,0,0,0,0,0,0,0,0,0,0,0,0,0,0,0,0,0,0,0,0,0,0,0,0,0,0,0,0,0,0,0,0,0,0,0,0,0,0,0,0,0,0,0,0,0,0,0,0,0,0,0,0,0,0,0,0,0,0,0,0,0,0,0,0,0,0,0,0,0,0,0,0,0,0,0,0,0,0,0,0,0,0,0,0,0,0,0,0,0,0,0,0,0,0,0,0,0,0,0,0,0],"id":7,"left_children":[1,3,5,7,9,11,13,15,17,19,21,23,25,27,29,31,33,35,37,39,41,43,45,47,49,51,53,55,57,59,61,63,65,67,69,71,73,75,77,79,81,83,85,87,89,91,93,95,97,99,101,103,105,107,-1,109,-1,111,113,115,117,119,121,-1,-1,-1,-1,-1,-1,-1,-1,-1,-1,-1,-1,-1,-1,-1,-1,-1,-1,-1,-1,-1,-1,-1,-1,-1,-1,-1,-1,-1,-1,-1,-1,-1,-1,-1,-1,-1,-1,-1,-1,-1,-1,-1,-1,-1,-1,-1,-1,-1,-1,-1,-1,-1,-1,-1,-1,-1,-1,-1,-1],"loss_changes":[2.9349553E4,6.070131E3,1.0559856E4,4.778542E3,6.663994E2,6.5107812E3,1.5867415E3,1.8077227E3,5.122891E3,6.135654E2,3.3910156E2,6.604254E3,1.1692498E3,8.6873346E2,1.1482349E3,1.007013E3,7.9951953E2,1.8678501E3,1.3332065E3,3.993003E2,2.1235144E2,5.024214E2,2.5422656E2,3.2529434E3,3.632974E3,8.013551E2,8.726206E2,5.0570514E2,1.2932959E3,5.821665E2,1.1341519E3,1.2194951E3,3.8047925E2,5.7857324E2,1.5867471E2,1.4770176E3,3.0806824E2,1.494846E3,8.950576E2,4.5324493E2,2.3277867E2,1.7347649E2,1.2325574E2,2.616609E2,5.8149225E2,3.8271692E2,2.0182129E2,1.197561E3,2.227041E3,2.0768645E3,1.6999468E3,6.896787E2,5.2598083E2,8.072671E2,0E0,1.9458844E2,0E0,7.8218823E2,1.339615E3,2.2959227E2,4.7009863E2,4.161223E2,9.9145984E2,0E0,0E0,0E0,0E0,0E0,0E0,0E0,0E0,0E0,0E0,0E0,0E0,0E0,0E0,0E0,0E0,0E0,0E0,0E0,0E0,0E0,0E0,0E0,0E0,0E0,0E0,0E0,0E0,0E0,0E0,0E0,0E0,0E0,0E0,0E0,0E0,0E0,0E0,0E0,0E0,0E0,0E0,0E0,0E0,0E0,0E0,0E0,0E0,0E0,0E0,0E0,0E0,0E0,0E0,0E0,0E0,0E0,0E0,0E0,0E0],"parents":[2147483647,0,0,1,1,2,2,3,3,4,4,5,5,6,6,7,7,8,8,9,9,10,10,11,11,12,12,13,13,14,14,15,15,16,16,17,17,18,18,19,19,20,20,21,21,22,22,23,23,24,24,25,25,26,26,27,27,28,28,29,29,30,30,31,31,32,32,33,33,34,34,35,35,36,36,37,37,38,38,39,39,40,40,41,41,42,42,43,43,44,44,45,45,46,46,47,47,48,48,49,49,50,50,51,51,52,52,53,53,55,55,57,57,58,58,59,59,60,60,61,61,62,62],"right_children":[2,4,6,8,10,12,14,16,18,20,22,24,26,28,30,32,34,36,38,40,42,44,46,48,50,52,54,56,58,60,62,64,66,68,70,72,74,76,78,80,82,84,86,88,90,92,94,96,98,100,102,104,106,108,-1,110,-1,112,114,116,118,120,122,-1,-1,-1,-1,-1,-1,-1,-1,-1,-1,-1,-1,-1,-1,-1,-1,-1,-1,-1,-1,-1,-1,-1,-1,-1,-1,-1,-1,-1,-1,-1,-1,-1,-1,-1,-1,-1,-1,-1,-1,-1,-1,-1,-1,-1,-1,-1,-1,-1,-1,-1,-1,-1,-1,-1,-1,-1,-1,-1,-1],"split_conditions":[2.4692028E0,3.794E1,2.3416666E1,2.4E0,1.5916667E1,3.783E1,5.071006E-1,1.7954693E1,5.071006E-1,1.3761056E1,1.35E1,2.4E1,5.071006E-1,2.35E0,9.831921E-1,3.2E0,6.5E0,3.4E0,1.6916666E1,4.2861015E-1,0E0,1.5E0,7.29E0,7.6E1,7.2666664E1,2.4346708E1,8.495E1,1.46E2,2.7916666E1,1.16E2,5.625E1,8.034E1,1.18E2,2.5E0,2.5E0,5.3E-1,2.7E0,1.3183333E2,2.3380904E0,1.2E0,5.163978E-1,5.4313903E0,2.54E2,1.8E2,7.45E0,3.9E1,5.8E1,6.7230945E0,7.44E0,2.5E0,9.7E1,9.831921E-1,1.04E1,1.1E1,-1.0072601E-1,2.8E1,-8.9699894E-2,1.24E2,9.5E-1,8.7166664E1,3.589E1,5.163978E-1,5.8E-1,1.0302803E-2,-7.248933E-2,4.751082E-2,-1.07746914E-1,3.408253E-2,5.22801E-2,8.951592E-2,-1.0089552E-1,-4.420008E-2,1.1203581E-3,-4.8365425E-2,5.260104E-2,9.208742E-3,-3.4362238E-2,1.588618E-2,4.0418234E-2,1.6364312E-2,-6.223881E-2,-4.453502E-2,4.8440177E-2,6.731817E-2,-1.0259061E-1,-9.583234E-2,5.9979197E-2,-1.077561E-1,5.0232984E-2,-1.9634627E-2,4.6726033E-2,-1.14602104E-1,5.2314233E-2,-9.509947E-2,5.660204E-2,-1.7297754E-2,3.1961676E-2,-4.718074E-2,-1.46019E-2,-3.5265589E-3,3.862643E-2,-2.8096989E-2,1.1980733E-3,7.587907E-2,-4.8567172E-2,-4.9476374E-2,3.5145737E-2,2.9037768E-2,-8.335271E-4,-8.799432E-2,8.5028656E-2,-5.64538E-2,6.917269E-2,-8.6386755E-2,4.7057416E-2,1.9331424E-2,-9.7941756E-2,-1.0315212E-1,5.3110927E-2,-9.951316E-2,4.3028235E-2,2.0580941E-3,3.1688683E-2],"split_indices":[21,2,49,25,49,2,35,49,35,44,14,14,35,23,44,18,18,25,49,42,7,21,10,15,45,14,33,32,49,3,47,33,14,7,23,9,23,43,40,21,40,46,31,31,10,14,12,48,10,21,37,44,28,28,0,27,0,37,18,37,2,48,9,0,0,0,0,0,0,0,0,0,0,0,0,0,0,0,0,0,0,0,0,0,0,0,0,0,0,0,0,0,0,0,0,0,0,0,0,0,0,0,0,0,0,0,0,0,0,0,0,0,0,0,0,0,0,0,0,0,0,0,0],"split_type":[0,0,0,0,0,0,0,0,0,0,0,0,0,0,0,0,0,0,0,0,0,0,0,0,0,0,0,0,0,0,0,0,0,0,0,0,0,0,0,0,0,0,0,0,0,0,0,0,0,0,0,0,0,0,0,0,0,0,0,0,0,0,0,0,0,0,0,0,0,0,0,0,0,0,0,0,0,0,0,0,0,0,0,0,0,0,0,0,0,0,0,0,0,0,0,0,0,0,0,0,0,0,0,0,0,0,0,0,0,0,0,0,0,0,0,0,0,0,0,0,0,0,0],"sum_hessian":[2.4299619E5,9.586652E4,1.4712967E5,7.753591E4,1.833062E4,1.209525E5,2.617717E4,3.0756986E4,4.6778918E4,2.1487344E3,1.6181884E4,1.0708117E5,1.3871325E4,3.574459E3,2.260271E4,1.0381849E4,2.0375139E4,1.0328995E4,3.644992E4,1.2160171E3,9.3271716E2,5.0736973E3,1.1108187E4,5.159753E4,5.5483645E4,2.7076958E3,1.1163629E4,3.8880225E2,3.1856567E3,3.4061965E3,1.9196514E4,8.304586E3,2.0772622E3,2.0244617E4,1.3052109E2,9.440079E3,8.889161E2,1.1800597E4,2.4649326E4,7.3547656E2,4.8054053E2,6.1666348E1,8.7105084E2,3.7549712E3,1.3187258E3,1.4450592E2,1.0963681E4,7.229309E3,4.436822E4,2.1388086E4,3.409556E4,1.6530455E3,1.0546503E3,1.1013915E4,1.4971423E2,3.3664017E2,5.216209E1,2.0738635E3,1.1117932E3,1.6686304E2,3.2393335E3,3.3826611E3,1.5813853E4,7.8340356E3,4.7055032E2,2.0379373E3,3.9324924E1,1.3857186E4,6.387432E3,1.1269834E1,1.1925124E2,7.0240596E3,2.4160198E3,8.257174E1,8.063443E2,9.304938E3,2.495659E3,2.008664E4,4.562685E3,3.424787E2,3.9299786E2,8.006386E1,4.0047665E2,2.3497932E1,3.8168415E1,1.2023887E1,8.59027E2,2.5490932E1,3.7294802E3,6.6552203E2,6.532038E2,5.397205E1,9.0533875E1,2.1106718E1,1.0942574E4,5.651945E3,1.5773646E3,3.828855E4,6.0796704E3,1.7896846E4,3.4912415E3,2.8083477E4,6.012081E3,1.1915727E2,1.5338882E3,2.3568039E2,8.189699E2,7.8343896E3,3.1795254E3,1.633124E1,3.203089E2,1.9423508E3,1.3151271E2,2.3865689E2,8.7313635E2,7.590187E1,9.096116E1,4.7975548E1,3.191358E3,5.1084667E1,3.3315764E3,1.2135786E4,3.6780664E3],"tree_param":{"num_deleted":"0","num_feature":"77","num_nodes":"123","size_leaf_vector":"1"}},{"base_weights":[-3.6433104E-3,-1.6032931E-1,4.9147177E-1,2.6301438E-1,-3.3979186E-1,-1.8581732E-1,6.2163675E-1,4.8612073E-1,1.6484655E-3,-8.241106E-1,-2.0341289E-1,-3.558474E-1,8.444937E-1,1.2223379E-1,7.1446264E-1,1.036306E0,4.0842655E-1,-3.30392E-1,6.2861264E-1,-8.848143E-1,8.842774E-1,-3.119663E-1,4.9126625E-1,4.677093E-1,-5.4205835E-1,3.741234E-2,1.2812554E0,4.7135073E-1,-1.9859667E-1,6.093957E-1,1.0141788E0,1.073193E0,-1.0480201E-1,1.342308E-1,5.535848E-1,6.299295E-1,-5.01518E-1,-1.21224344E-1,7.450636E-1,-9.630041E-1,2.4916056E-1,1.1357374E0,-1.2009739E0,4.1147716E-2,-5.830335E-1,3.4119108E-1,8.729118E-1,-5.7632323E-2,1.0146556E0,-7.137362E-1,3.159553E-1,-6.270419E-1,9.183402E-1,-9.114881E-2,1.3692662E0,5.46057E-1,-1.4612566E0,1.026931E0,-3.2881966E-1,4.275238E-1,7.477458E-1,1.0216709E0,-1.00295536E-1,5.5053193E-2,-1.0179281E-1,2.3572369E-2,-7.0764977E-3,-8.581925E-2,2.8504124E-2,-4.766028E-2,4.1024245E-2,-4.6607368E-2,-2.234181E-3,-8.376174E-2,1.2155651E-2,-1.0139882E-1,3.822021E-2,-4.950803E-2,2.7248263E-2,7.514986E-2,-9.4936825E-3,-5.7543676E-2,6.360442E-2,7.105173E-2,-9.9912874E-2,-1.4334925E-3,2.8486392E-2,-4.3158542E-2,-1.3842555E-2,3.0220443E-2,1.5647904E-3,-1.0610902E-1,4.513849E-2,-3.198978E-2,4.9460776E-2,-4.4425633E-2,6.196049E-2,-4.1471746E-2,3.2596763E-2,-8.93279E-2,2.7536884E-2,-6.221634E-2,7.994955E-2,6.3430764E-2,-8.668565E-2,7.491299E-2,-5.2278894E-3,7.2079636E-3,4.2939823E-2,6.232924E-2,-1.0340325E-1,7.004739E-2,-6.1319042E-2,1.5152365E-4,-4.445063E-2,1.0498514E-2,3.4707416E-2,4.9606547E-2,2.8720448E-2,4.4521227E-2,5.8529794E-2],"categories":[],"categories_nodes":[],"categories_segments":[],"categories_sizes":[],"default_left":[0,0,0,0,0,0,0,0,0,0,0,0,0,0,0,0,0,0,0,0,0,0,0,0,0,0,0,0,0,0,0,0,0,0,0,0,0,0,0,0,0,0,0,0,0,0,0,0,0,0,0,0,0,0,0,0,0,0,0,0,0,0,0,0,0,0,0,0,0,0,0,0,0,0,0,0,0,0,0,0,0,0,0,0,0,0,0,0,0,0,0,0,0,0,0,0,0,0,0,0,0,0,0,0,0,0,0,0,0,0,0,0,0,0,0,0,0,0,0,0,0],"id":8,"left_children":[1,3,5,7,9,11,13,15,17,19,21,23,25,27,29,31,33,35,37,39,41,43,45,47,49,51,53,55,57,59,61,63,-1,65,67,69,71,73,75,77,79,81,83,85,87,89,91,93,95,97,99,101,103,-1,105,107,109,111,113,115,117,119,-1,-1,-1,-1,-1,-1,-1,-1,-1,-1,-1,-1,-1,-1,-1,-1,-1,-1,-1,-1,-1,-1,-1,-1,-1,-1,-1,-1,-1,-1,-1,-1,-1,-1,-1,-1,-1,-1,-1,-1,-1,-1,-1,-1,-1,-1,-1,-1,-1,-1,-1,-1,-1,-1,-1,-1,-1,-1,-1],"loss_changes":[1.8833484E4,1.4010547E4,5.1450264E3,3.2014504E3,8.554064E3,1.648522E3,2.2691914E3,1.2656626E3,5.2637715E3,2.9517617E3,7.620712E3,1.2388269E3,4.698471E2,8.596258E2,1.2992637E3,4.256421E2,1.0329937E3,2.7168682E3,7.6453076E2,2.4367148E3,5.136106E2,8.365622E3,7.81947E2,4.2816287E2,9.705875E2,2.7516168E2,2.3879749E2,5.31421E2,6.386497E2,7.688037E2,2.4445312E2,3.161294E2,0E0,8.35655E2,6.3651465E2,7.5515027E2,2.7602014E3,6.6719763E2,4.079673E2,1.0532773E3,9.764675E2,2.734281E2,2.2362268E2,1.4007563E3,4.2406914E3,7.997291E2,3.4657983E2,4.64363E2,3.1307898E2,8.6792505E2,5.434977E2,3.7025302E2,1.8994344E2,0E0,1.601648E2,4.44714E2,2.2777625E2,3.2569684E2,6.72261E2,7.660183E2,7.3478516E2,2.0784668E2,0E0,0E0,0E0,0E0,0E0,0E0,0E0,0E0,0E0,0E0,0E0,0E0,0E0,0E0,0E0,0E0,0E0,0E0,0E0,0E0,0E0,0E0,0E0,0E0,0E0,0E0,0E0,0E0,0E0,0E0,0E0,0E0,0E0,0E0,0E0,0E0,0E0,0E0,0E0,0E0,0E0,0E0,0E0,0E0,0E0,0E0,0E0,0E0,0E0,0E0,0E0,0E0,0E0,0E0,0E0,0E0,0E0,0E0,0E0],"parents":[2147483647,0,0,1,1,2,2,3,3,4,4,5,5,6,6,7,7,8,8,9,9,10,10,11,11,12,12,13,13,14,14,15,15,16,16,17,17,18,18,19,19,20,20,21,21,22,22,23,23,24,24,25,25,26,26,27,27,28,28,29,29,30,30,31,31,33,33,34,34,35,35,36,36,37,37,38,38,39,39,40,40,41,41,42,42,43,43,44,44,45,45,46,46,47,47,48,48,49,49,50,50,51,51,52,52,54,54,55,55,56,56,57,57,58,58,59,59,60,60,61,61],"right_children":[2,4,6,8,10,12,14,16,18,20,22,24,26,28,30,32,34,36,38,40,42,44,46,48,50,52,54,56,58,60,62,64,-1,66,68,70,72,74,76,78,80,82,84,86,88,90,92,94,96,98,100,102,104,-1,106,108,110,112,114,116,118,120,-1,-1,-1,-1,-1,-1,-1,-1,-1,-1,-1,-1,-1,-1,-1,-1,-1,-1,-1,-1,-1,-1,-1,-1,-1,-1,-1,-1,-1,-1,-1,-1,-1,-1,-1,-1,-1,-1,-1,-1,-1,-1,-1,-1,-1,-1,-1,-1,-1,-1,-1,-1,-1,-1,-1,-1,-1,-1,-1],"split_conditions":[3.761E1,3.5620752E2,5.071006E-1,5.1E-1,5.071006E-1,2.6416666E1,1.6125E1,9.831921E-1,6E-1,4.12E2,6E-1,2.4E0,7.43E0,3.04E1,3.839E1,4.11E1,3.204164E0,9.831921E-1,1.6666666E1,3.39E2,1.11E3,5.1E-1,2.475E1,1E0,3.839E1,6.5096083E0,5.3166404E0,8.9E0,2.3E1,0E0,4.38E1,8.55E1,-1.0480201E-1,7.2E1,9.288186E0,7.2E0,4E1,7.475E1,3.2E0,4E2,1.4083333E1,3.55E1,4.3E1,2.475E1,8.498527E1,7.6388336E1,3.533E1,3E0,6.039E1,8.9E0,1.85E0,4.69E2,3.14E1,-9.114881E-2,1.34E1,2.5E-1,-5.5E0,4.1E-1,8.133E1,7.50509E0,2.89E2,2.5E1,-1.00295536E-1,5.5053193E-2,-1.0179281E-1,2.3572369E-2,-7.0764977E-3,-8.581925E-2,2.8504124E-2,-4.766028E-2,4.1024245E-2,-4.6607368E-2,-2.234181E-3,-8.376174E-2,1.2155651E-2,-1.0139882E-1,3.822021E-2,-4.950803E-2,2.7248263E-2,7.514986E-2,-9.4936825E-3,-5.7543676E-2,6.360442E-2,7.105173E-2,-9.9912874E-2,-1.4334925E-3,2.8486392E-2,-4.3158542E-2,-1.3842555E-2,3.0220443E-2,1.5647904E-3,-1.0610902E-1,4.513849E-2,-3.198978E-2,4.9460776E-2,-4.4425633E-2,6.196049E-2,-4.1471746E-2,3.2596763E-2,-8.93279E-2,2.7536884E-2,-6.221634E-2,7.994955E-2,6.3430764E-2,-8.668565E-2,7.491299E-2,-5.2278894E-3,7.2079636E-3,4.2939823E-2,6.232924E-2,-1.0340325E-1,7.004739E-2,-6.1319042E-2,1.5152365E-4,-4.445063E-2,1.0498514E-2,3.4707416E-2,4.9606547E-2,2.8720448E-2,4.4521227E-2,5.8529794E-2],"split_indices":[2,13,35,9,35,49,49,44,9,13,9,25,10,27,2,27,48,44,49,32,13,9,49,25,2,48,44,16,13,7,27,5,0,45,26,30,29,37,24,31,49,11,32,49,37,45,2,7,33,16,22,31,27,0,30,7,7,9,4,46,13,8,0,0,0,0,0,0,0,0,0,0,0,0,0,0,0,0,0,0,0,0,0,0,0,0,0,0,0,0,0,0,0,0,0,0,0,0,0,0,0,0,0,0,0,0,0,0,0,0,0,0,0,0,0,0,0,0,0,0,0],"split_type":[0,0,0,0,0,0,0,0,0,0,0,0,0,0,0,0,0,0,0,0,0,0,0,0,0,0,0,0,0,0,0,0,0,0,0,0,0,0,0,0,0,0,0,0,0,0,0,0,0,0,0,0,0,0,0,0,0,0,0,0,0,0,0,0,0,0,0,0,0,0,0,0,0,0,0,0,0,0,0,0,0,0,0,0,0,0,0,0,0,0,0,0,0,0,0,0,0,0,0,0,0,0,0,0,0,0,0,0,0,0,0,0,0,0,0,0,0,0,0,0,0],"sum_hessian":[2.4276762E5,1.8440939E5,5.8358223E4,5.490072E4,1.2950868E5,9.407522E3,4.89507E4,2.9617695E4,2.5283023E4,2.8454387E4,1.0105429E5,8.075495E3,1.3320276E3,7.672891E3,4.127781E4,3.6633843E3,2.5954312E4,1.6529479E4,8.753545E3,2.7478482E4,9.7590356E2,8.739771E4,1.3656575E4,1.488921E3,6.586574E3,4.6810788E2,8.639197E2,3.6742388E3,3.998652E3,3.0565834E4,1.0711975E4,3.6213955E3,4.1988663E1,8.984682E3,1.696963E4,2.499599E3,1.402988E4,1.1766919E3,7.576853E3,2.5706145E4,1.772338E3,8.712902E2,1.0461336E2,3.7955137E4,4.9442574E4,9.803443E3,3.853132E3,7.599164E2,7.290047E2,5.488552E3,1.0980222E3,2.67004E2,2.0110391E2,2.3274973E1,8.406447E2,3.5381853E3,1.3605354E2,3.834184E2,3.615234E3,1.3207566E4,1.7358268E4,1.0686126E4,2.584816E1,3.5898604E3,3.1535284E1,4.0416292E3,4.9430522E3,1.2169829E2,1.6847932E4,2.68113E2,2.231486E3,7.2215415E3,6.808338E3,2.227969E2,9.5389496E2,5.1759518E1,7.5250938E3,2.5251738E4,4.5440747E2,4.5901498E2,1.313323E3,4.86127E1,8.226775E2,2.4210499E1,8.040286E1,3.352759E4,4.42755E3,2.581849E4,2.3624086E4,5.3004307E3,4.5030127E3,3.734082E1,3.8157913E3,4.885933E2,2.713231E2,7.662516E1,6.523795E2,5.060244E3,4.2830774E2,1.0963288E2,9.8838934E2,2.0938263E2,5.7621357E1,1.7810234E2,2.3001562E1,7.7297504E2,6.7669685E1,1.5490198E3,1.9891654E3,2.4714117E1,1.1133943E2,3.291608E2,5.42576E1,2.2709504E3,1.3442834E3,7.2740557E3,5.933511E3,7.2009834E3,1.0157284E4,5.6839146E3,5.0022114E3],"tree_param":{"num_deleted":"0","num_feature":"77","num_nodes":"121","size_leaf_vector":"1"}},{"base_weights":[5.9404965E-3,4.0333244E-1,-2.4475126E-1,2.45267E-1,7.4919873E-1,-3.4765738E-1,3.3474728E-1,5.2130365E-1,6.6271536E-2,5.7961905E-1,9.582204E-1,-4.2599073E-1,2.3633687E-1,2.4065164E-1,7.5373685E-1,3.8104665E-1,8.5809666E-1,-4.6852353E-1,2.2123869E-1,6.894417E-2,6.769391E-1,5.086803E-1,1.0301409E0,-6.641836E-1,-2.0429143E-1,9.6781015E-1,1.14791274E-1,7.81676E-1,1.5338695E-1,-1.1618353E0,7.805233E-1,2.5143877E-1,7.946705E-1,8.8428897E-1,-1.6006297E0,-6.168742E-1,8.470925E-1,3.2275036E-1,-1.0305736E-1,1.0049112E0,-4.523078E-1,5.9679574E-1,1.0342966E0,-6.404785E-1,7.357359E-1,-5.859868E-1,1.0415542E0,-8.160075E-2,-7.623879E-1,6.506562E-1,-2.6772374E-1,-1.0540406E-1,1.04838E0,-2.741152E-1,3.826942E-1,-9.035286E-2,8.5710967E-1,-7.562368E-2,3.6849082E-1,1.4635009E0,-9.6499525E-2,1.4282532E-1,8.5160327E-1,2.0095787E-3,3.6816772E-2,4.1979972E-2,-1.0632882E-1,6.868519E-2,3.7999135E-2,-1.0619334E-1,5.3255912E-2,-4.1678954E-2,2.6090172E-4,-6.696835E-2,5.1093902E-2,-3.5124853E-2,1.8583892E-2,-3.9745204E-2,5.4048183E-3,5.5211496E-2,-9.098151E-2,-3.5189617E-2,5.9774846E-2,3.6494102E-2,1.5221335E-2,-1.163637E-1,5.3301144E-2,5.687352E-3,-1.003186E-1,4.369592E-2,-5.5337455E-2,-9.989645E-2,6.2171817E-2,5.233052E-2,-1.1909405E-1,3.774014E-2,-1.2658528E-2,7.657482E-3,-4.0664237E-2,4.97407E-2,-1.0049965E-2,-2.024787E-2,1.3437344E-3,-5.434074E-2,5.6324966E-2,-4.9513485E-2,-1.5693083E-3,-1.1040071E-2,2.5063848E-2,3.363447E-2,7.1090065E-2,2.9448092E-3,-4.2385407E-2,9.119278E-3,3.2961372E-2,9.092956E-2,-5.624826E-2,-3.3805456E-2,4.682045E-2,-1.0319467E-1,4.3192E-2],"categories":[],"categories_nodes":[],"categories_segments":[],"categories_sizes":[],"default_left":[0,0,0,0,0,0,0,0,0,0,0,0,0,0,0,0,0,0,0,0,0,0,0,0,0,0,0,0,0,0,0,0,0,0,0,0,0,0,0,0,0,0,0,0,0,0,0,0,0,0,0,0,0,0,0,0,0,0,0,0,0,0,0,0,0,0,0,0,0,0,0,0,0,0,0,0,0,0,0,0,0,0,0,0,0,0,0,0,0,0,0,0,0,0,0,0,0,0,0,0,0,0,0,0,0,0,0,0,0,0,0,0,0,0,0,0,0,0,0,0,0],"id":9,"left_children":[1,3,5,7,9,11,13,15,17,19,21,23,25,27,29,31,33,35,37,39,41,43,45,47,49,51,53,55,57,59,61,63,65,67,69,71,73,75,77,79,81,83,85,87,89,91,93,95,97,99,101,-1,103,105,107,-1,109,111,113,115,-1,117,119,-1,-1,-1,-1,-1,-1,-1,-1,-1,-1,-1,-1,-1,-1,-1,-1,-1,-1,-1,-1,-1,-1,-1,-1,-1,-1,-1,-1,-1,-1,-1,-1,-1,-1,-1,-1,-1,-1,-1,-1,-1,-1,-1,-1,-1,-1,-1,-1,-1,-1,-1,-1,-1,-1,-1,-1,-1,-1],"loss_changes":[2.4215365E4,5.140086E3,8.888311E3,3.188537E3,1.0448027E3,5.790217E3,8.859575E2,1.1988203E3,3.244634E3,8.0927686E2,4.265078E2,5.893213E3,1.3308403E3,8.665083E2,2.1238892E2,9.6067017E2,4.8201367E2,1.7172433E3,9.99297E2,1.2727019E3,3.911128E2,4.7630392E2,2.1061914E2,3.0778867E3,3.1349233E3,5.308032E2,1.337702E3,4.993629E2,7.7873267E2,1.1825992E2,1.8414844E2,1.3980588E3,5.629907E2,4.4822363E2,1.1247641E2,1.0657017E3,3.4216205E2,1.1599375E3,1.0573391E3,2.6377332E2,6.9521765E2,4.3458545E2,2.695537E2,3.1073935E2,3.8878308E2,2.103715E2,1.981914E2,1.1140037E3,2.145418E3,1.1704916E3,2.1755476E3,0E0,3.480271E2,9.103383E2,5.44147E2,0E0,2.5707922E2,7.953307E2,4.409391E2,1.4477959E1,0E0,2.6636844E2,1.322649E2,0E0,0E0,0E0,0E0,0E0,0E0,0E0,0E0,0E0,0E0,0E0,0E0,0E0,0E0,0E0,0E0,0E0,0E0,0E0,0E0,0E0,0E0,0E0,0E0,0E0,0E0,0E0,0E0,0E0,0E0,0E0,0E0,0E0,0E0,0E0,0E0,0E0,0E0,0E0,0E0,0E0,0E0,0E0,0E0,0E0,0E0,0E0,0E0,0E0,0E0,0E0,0E0,0E0,0E0,0E0,0E0,0E0,0E0],"parents":[2147483647,0,0,1,1,2,2,3,3,4,4,5,5,6,6,7,7,8,8,9,9,10,10,11,11,12,12,13,13,14,14,15,15,16,16,17,17,18,18,19,19,20,20,21,21,22,22,23,23,24,24,25,25,26,26,27,27,28,28,29,29,30,30,31,31,32,32,33,33,34,34,35,35,36,36,37,37,38,38,39,39,40,40,41,41,42,42,43,43,44,44,45,45,46,46,47,47,48,48,49,49,50,50,52,52,53,53,54,54,56,56,57,57,58,58,59,59,61,61,62,62],"right_children":[2,4,6,8,10,12,14,16,18,20,22,24,26,28,30,32,34,36,38,40,42,44,46,48,50,52,54,56,58,60,62,64,66,68,70,72,74,76,78,80,82,84,86,88,90,92,94,96,98,100,102,-1,104,106,108,-1,110,112,114,116,-1,118,120,-1,-1,-1,-1,-1,-1,-1,-1,-1,-1,-1,-1,-1,-1,-1,-1,-1,-1,-1,-1,-1,-1,-1,-1,-1,-1,-1,-1,-1,-1,-1,-1,-1,-1,-1,-1,-1,-1,-1,-1,-1,-1,-1,-1,-1,-1,-1,-1,-1,-1,-1,-1,-1,-1,-1,-1,-1,-1],"split_conditions":[2.4E0,3.761E1,2.4166666E1,2.4E0,3.811E1,3.783E1,1E0,2.2333334E1,5.071006E-1,5.071006E-1,1.65E1,2.4E1,6.5E0,9.831921E-1,8.75E1,4.18E1,6.4E0,3.4E0,1.3216667E2,1.035E2,2.5583334E1,3.5071356E0,6.85E1,7.6E1,1.8E1,2.49E1,2.8401878E-1,1.02E2,2.4346708E1,1.825E1,5.071006E-1,2.5E0,1.495E2,9.831921E-1,6.96E1,5.3E-1,2.7E0,2.44E1,1.625E1,4.65E0,3.075E1,1.5E0,3.35E0,1.04E1,9.9916664E1,6.4823097E-1,2.54E2,1.4142135E0,9.65E1,5.2E0,8.9166664E1,-1.0540406E-1,2.3E0,1.25E1,5.071006E-1,-9.035286E-2,3.778E1,3.59E1,2.7916666E1,6.2E1,-9.6499525E-2,2.25E0,8.6E1,2.0095787E-3,3.6816772E-2,4.1979972E-2,-1.0632882E-1,6.868519E-2,3.7999135E-2,-1.0619334E-1,5.3255912E-2,-4.1678954E-2,2.6090172E-4,-6.696835E-2,5.1093902E-2,-3.5124853E-2,1.8583892E-2,-3.9745204E-2,5.4048183E-3,5.5211496E-2,-9.098151E-2,-3.5189617E-2,5.9774846E-2,3.6494102E-2,1.5221335E-2,-1.163637E-1,5.3301144E-2,5.687352E-3,-1.003186E-1,4.369592E-2,-5.5337455E-2,-9.989645E-2,6.2171817E-2,5.233052E-2,-1.1909405E-1,3.774014E-2,-1.2658528E-2,7.657482E-3,-4.0664237E-2,4.97407E-2,-1.0049965E-2,-2.024787E-2,1.3437344E-3,-5.434074E-2,5.6324966E-2,-4.9513485E-2,-1.5693083E-3,-1.1040071E-2,2.5063848E-2,3.363447E-2,7.1090065E-2,2.9448092E-3,-4.2385407E-2,9.119278E-3,3.2961372E-2,9.092956E-2,-5.624826E-2,-3.3805456E-2,4.682045E-2,-1.0319467E-1,4.3192E-2],"split_indices":[21,2,49,25,2,2,53,49,35,35,49,14,30,44,1,29,23,25,43,17,49,38,12,15,8,29,42,43,14,6,35,7,43,44,29,9,23,29,49,24,6,21,24,30,39,42,20,44,17,23,37,0,23,14,35,0,2,27,49,1,0,22,43,0,0,0,0,0,0,0,0,0,0,0,0,0,0,0,0,0,0,0,0,0,0,0,0,0,0,0,0,0,0,0,0,0,0,0,0,0,0,0,0,0,0,0,0,0,0,0,0,0,0,0,0,0,0,0,0,0,0],"split_type":[0,0,0,0,0,0,0,0,0,0,0,0,0,0,0,0,0,0,0,0,0,0,0,0,0,0,0,0,0,0,0,0,0,0,0,0,0,0,0,0,0,0,0,0,0,0,0,0,0,0,0,0,0,0,0,0,0,0,0,0,0,0,0,0,0,0,0,0,0,0,0,0,0,0,0,0,0,0,0,0,0,0,0,0,0,0,0,0,0,0,0,0,0,0,0,0,0,0,0,0,0,0,0,0,0,0,0,0,0,0,0,0,0,0,0,0,0,0,0,0,0],"sum_hessian":[2.4306831E5,9.402346E4,1.4904486E5,6.453282E4,2.9490639E4,1.2656934E5,2.2475514E4,2.538445E4,3.914837E4,1.6283541E4,1.3207098E4,1.1160025E5,1.4969093E4,1.8354975E4,4.1205405E3,1.7922697E4,7.461751E3,8.794911E3,3.0353459E4,2.6067341E3,1.3676807E4,1.8226521E3,1.1384445E4,5.3797945E4,5.7802305E4,2.131935E3,1.2837157E4,2.5482642E3,1.580671E4,5.624071E1,4.0643E3,1.3647804E4,4.2748945E3,7.3837344E3,7.8016945E1,7.9041587E3,8.9075275E2,2.3117262E4,7.2361973E3,9.321054E2,1.6746288E3,1.1173609E4,2.5031973E3,3.00411E2,1.5222411E3,7.948162E1,1.1304964E4,7.760673E3,4.6037273E4,3.991754E3,5.381055E4,5.3776123E1,2.078159E3,5.236079E3,7.601078E3,7.150199E1,2.4767622E3,7.656187E3,8.1505225E3,1.2525816E1,4.3714893E1,4.0789093E2,3.656409E3,9.507087E3,4.1407173E3,4.2108438E3,6.405043E1,1.4935049E3,5.8902295E3,6.538613E1,1.2630814E1,5.8618525E3,2.0423065E3,6.544262E1,8.253102E2,1.0523578E3,2.2064904E4,1.6914348E3,5.544762E3,9.010317E2,3.1073746E1,1.4533885E3,2.2124028E2,7.6773745E3,3.496235E3,2.2727617E1,2.4804697E3,1.9413136E2,1.06279655E2,1.41653E3,1.0571106E2,4.4807358E1,3.4674263E1,1.1288985E4,1.5978629E1,1.320386E3,6.440287E3,2.42443E3,4.3612844E4,2.8427983E3,1.1489554E3,3.670963E4,1.7100926E4,7.2893196E1,2.0052659E3,1.3246664E3,3.9114126E3,1.2481393E3,6.352939E3,1.8686716E3,6.0809064E2,6.5209663E3,1.1352208E3,4.9704707E3,3.180052E3,1.1276334E1,1.2494822E0,2.0081204E2,2.0707887E2,1.4581506E1,3.6418276E3],"tree_param":{"num_deleted":"0","num_feature":"77","num_nodes":"121","size_leaf_vector":"1"}},{"base_weights":[2.811916E-3,3.7737465E-1,-2.4008074E-1,5.386356E-2,5.3186196E-1,-3.764063E-1,1.7235845E-1,-5.2816457E-1,1.9530101E-1,4.2230213E-1,9.2741984E-1,-4.6032003E-1,2.37789E-1,-4.4223195E-1,2.7410355E-1,2.186817E-1,-7.8320336E-1,-3.1830613E-2,4.1274393E-1,3.2325774E-1,7.8750986E-1,-9.715803E-2,9.5083696E-1,-3.165452E-1,-8.0792695E-1,-8.825323E-2,4.9631512E-1,6.026488E-1,-6.5260583E-1,8.5125303E-1,1.7155118E-1,4.6037462E-1,-1.4211599E0,3.018489E-1,-1.0463938E0,-2.3301248E-1,3.813828E-1,5.137625E-1,-3.65474E-1,-3.7144437E-2,4.214222E-1,1.2331468E0,6.918474E-1,-1.2336655E0,8.057691E-1,7.3115915E-1,1.0484089E0,-7.433889E-1,-2.0357205E-1,-1.0440875E0,-3.3703926E-1,-3.4533423E-1,7.786684E-1,5.856775E-1,-9.002146E-1,-1.0858765E0,9.6439224E-1,-7.783708E-1,1.346245E0,5.656842E-1,1.2682171E0,3.2095683E-1,-1.9776657E-1,4.7308378E-2,-8.711111E-3,-9.073787E-2,8.201835E-2,3.8478393E-2,-6.298309E-2,-6.384062E-2,-8.603719E-3,-1.5957871E-2,6.291602E-2,2.2238187E-2,-1.0571504E-1,2.9202973E-2,-1.9072145E-2,3.2354288E-2,-4.648971E-2,-2.7062166E-2,2.1496285E-2,1.7450655E-2,3.8331505E-2,1.923807E-2,6.895276E-2,-1.011559E-1,3.6074355E-2,-1.03431754E-1,4.1616507E-2,-8.197027E-2,5.4977514E-2,4.5065995E-2,1.1423721E-2,5.328043E-2,-4.4944193E-3,3.2899655E-2,-4.274943E-2,7.515213E-3,-1.7861223E-2,-6.2450495E-2,-3.4496527E-2,-2.2820376E-2,3.1884518E-2,2.7825302E-2,-3.385177E-2,-8.9590274E-2,4.6337463E-2,3.979879E-2,-1.9554309E-4,4.06973E-2,-8.2021676E-2,-7.7804476E-2,7.4017465E-2,-9.507034E-2,5.571487E-2,-5.441335E-2,9.543816E-3,-8.763173E-2,7.994916E-2,-2.309282E-2,4.144739E-2,4.492171E-3,6.58819E-2,3.129678E-2,6.7216144E-3,-2.1638675E-2,3.0015394E-2],"categories":[],"categories_nodes":[],"categories_segments":[],"categories_sizes":[],"default_left":[0,0,0,0,0,0,0,0,0,0,0,0,0,0,0,0,0,0,0,0,0,0,0,0,0,0,0,0,0,0,0,0,0,0,0,0,0,0,0,0,0,0,0,0,0,0,0,0,0,0,0,0,0,0,0,0,0,0,0,0,0,0,0,0,0,0,0,0,0,0,0,0,0,0,0,0,0,0,0,0,0,0,0,0,0,0,0,0,0,0,0,0,0,0,0,0,0,0,0,0,0,0,0,0,0,0,0,0,0,0,0,0,0,0,0,0,0,0,0,0,0,0,0,0,0,0,0],"id":10,"left_children":[1,3,5,7,9,11,13,15,17,19,21,23,25,27,29,31,33,35,37,39,41,43,45,47,49,51,53,55,57,59,61,63,65,67,69,71,73,75,77,79,81,83,85,87,89,91,93,95,97,99,101,103,105,107,109,111,113,115,117,119,121,123,125,-1,-1,-1,-1,-1,-1,-1,-1,-1,-1,-1,-1,-1,-1,-1,-1,-1,-1,-1,-1,-1,-1,-1,-1,-1,-1,-1,-1,-1,-1,-1,-1,-1,-1,-1,-1,-1,-1,-1,-1,-1,-1,-1,-1,-1,-1,-1,-1,-1,-1,-1,-1,-1,-1,-1,-1,-1,-1,-1,-1,-1,-1,-1,-1],"loss_changes":[2.1977924E4,4.74937E3,8.239622E3,2.5285107E3,2.7868848E3,5.676616E3,2.2766084E3,1.1439507E3,1.2204082E3,1.8216328E3,3.3477246E2,4.8425605E3,1.116011E3,1.137114E3,1.8486028E3,6.068056E2,1.2786956E3,1.0048778E3,9.926533E2,1.401854E3,4.5720654E2,3.217785E2,2.9154785E2,3.3054482E3,3.1525078E3,1.3054025E3,9.220913E2,5.3073975E2,1.0832751E3,5.604048E2,1.4635929E3,4.1131464E2,2.4000388E2,6.3975726E2,7.256135E2,1.0448229E3,6.270384E2,7.0343115E2,8.297451E2,1.9975778E3,7.781572E2,2.3437012E2,7.1348193E2,2.4114665E2,1.273738E2,3.5884888E2,1.8493652E2,2.24415E3,2.9473958E3,1.3694629E3,1.1022854E3,1.351705E3,5.116009E2,8.606123E2,5.653429E2,1.8749808E2,3.091598E2,1.2169456E3,2.0267673E2,7.574766E2,1.1138867E2,1.0741841E3,1.4331886E3,0E0,0E0,0E0,0E0,0E0,0E0,0E0,0E0,0E0,0E0,0E0,0E0,0E0,0E0,0E0,0E0,0E0,0E0,0E0,0E0,0E0,0E0,0E0,0E0,0E0,0E0,0E0,0E0,0E0,0E0,0E0,0E0,0E0,0E0,0E0,0E0,0E0,0E0,0E0,0E0,0E0,0E0,0E0,0E0,0E0,0E0,0E0,0E0,0E0,0E0,0E0,0E0,0E0,0E0,0E0,0E0,0E0,0E0,0E0,0E0,0E0,0E0,0E0,0E0],"parents":[2147483647,0,0,1,1,2,2,3,3,4,4,5,5,6,6,7,7,8,8,9,9,10,10,11,11,12,12,13,13,14,14,15,15,16,16,17,17,18,18,19,19,20,20,21,21,22,22,23,23,24,24,25,25,26,26,27,27,28,28,29,29,30,30,31,31,32,32,33,33,34,34,35,35,36,36,37,37,38,38,39,39,40,40,41,41,42,42,43,43,44,44,45,45,46,46,47,47,48,48,49,49,50,50,51,51,52,52,53,53,54,54,55,55,56,56,57,57,58,58,59,59,60,60,61,61,62,62],"right_children":[2,4,6,8,10,12,14,16,18,20,22,24,26,28,30,32,34,36,38,40,42,44,46,48,50,52,54,56,58,60,62,64,66,68,70,72,74,76,78,80,82,84,86,88,90,92,94,96,98,100,102,104,106,108,110,112,114,116,118,120,122,124,126,-1,-1,-1,-1,-1,-1,-1,-1,-1,-1,-1,-1,-1,-1,-1,-1,-1,-1,-1,-1,-1,-1,-1,-1,-1,-1,-1,-1,-1,-1,-1,-1,-1,-1,-1,-1,-1,-1,-1,-1,-1,-1,-1,-1,-1,-1,-1,-1,-1,-1,-1,-1,-1,-1,-1,-1,-1,-1,-1,-1,-1,-1,-1,-1],"split_conditions":[2.4692028E0,1.738673E1,2.2E1,5.071006E-1,3.794E1,2.6E0,5.071006E-1,1.035E2,2.1E1,2.5333334E1,7.75E1,1.1E1,1.15E0,1.14E2,9.831921E-1,1.9E0,5.5E1,3.761E1,9.2166664E1,5.071006E-1,1.4142135E0,6.024948E0,1.35E1,5.071006E-1,1.33E1,2.65E1,6.8E0,9.59219E1,1.24E2,3.728E1,1.11E1,6.461E1,8.5E0,3.68E1,9.425E1,1.45E1,1.35E1,8.261E1,3.25E0,2.15E1,1E0,1.20833336E2,6.55E1,1.185E2,5.071006E-1,1.5E0,1.27166664E2,9.2E1,5.1E-1,1.85E1,1.9E0,5.9E1,-5E-1,-5E-1,6.2E0,2.0311737E1,3.66E1,3.7E0,1.10666664E2,1.09E1,7.65E0,5.1E-1,6.6E-1,4.7308378E-2,-8.711111E-3,-9.073787E-2,8.201835E-2,3.8478393E-2,-6.298309E-2,-6.384062E-2,-8.603719E-3,-1.5957871E-2,6.291602E-2,2.2238187E-2,-1.0571504E-1,2.9202973E-2,-1.9072145E-2,3.2354288E-2,-4.648971E-2,-2.7062166E-2,2.1496285E-2,1.7450655E-2,3.8331505E-2,1.923807E-2,6.895276E-2,-1.011559E-1,3.6074355E-2,-1.03431754E-1,4.1616507E-2,-8.197027E-2,5.4977514E-2,4.5065995E-2,1.1423721E-2,5.328043E-2,-4.4944193E-3,3.2899655E-2,-4.274943E-2,7.515213E-3,-1.7861223E-2,-6.2450495E-2,-3.4496527E-2,-2.2820376E-2,3.1884518E-2,2.7825302E-2,-3.385177E-2,-8.9590274E-2,4.6337463E-2,3.979879E-2,-1.9554309E-4,4.06973E-2,-8.2021676E-2,-7.7804476E-2,7.4017465E-2,-9.507034E-2,5.571487E-2,-5.441335E-2,9.543816E-3,-8.763173E-2,7.994916E-2,-2.309282E-2,4.144739E-2,4.492171E-3,6.58819E-2,3.129678E-2,6.7216144E-3,-2.1638675E-2,3.0015394E-2],"split_indices":[21,49,49,35,2,21,35,17,14,49,12,28,18,15,44,21,15,2,45,35,44,38,14,35,30,8,23,39,37,2,28,33,7,29,37,28,28,33,23,14,51,43,12,37,35,21,37,15,9,49,18,15,7,7,30,38,2,23,43,30,16,9,9,0,0,0,0,0,0,0,0,0,0,0,0,0,0,0,0,0,0,0,0,0,0,0,0,0,0,0,0,0,0,0,0,0,0,0,0,0,0,0,0,0,0,0,0,0,0,0,0,0,0,0,0,0,0,0,0,0,0,0,0,0,0,0,0],"split_type":[0,0,0,0,0,0,0,0,0,0,0,0,0,0,0,0,0,0,0,0,0,0,0,0,0,0,0,0,0,0,0,0,0,0,0,0,0,0,0,0,0,0,0,0,0,0,0,0,0,0,0,0,0,0,0,0,0,0,0,0,0,0,0,0,0,0,0,0,0,0,0,0,0,0,0,0,0,0,0,0,0,0,0,0,0,0,0,0,0,0,0,0,0,0,0,0,0,0,0,0,0,0,0,0,0,0,0,0,0,0,0,0,0,0,0,0,0,0,0,0,0,0,0,0,0,0,0],"sum_hessian":[2.4157062E5,9.502808E4,1.4654255E5,3.0713162E4,6.4314914E4,1.1013814E5,3.6404414E4,6.003886E3,2.4709275E4,5.036665E4,1.3948265E4,9.689959E4,1.3238546E4,5.170245E3,3.1234168E4,1.5283793E3,4.475507E3,1.2085808E4,1.2623468E4,3.962282E4,1.0743828E4,3.1159955E2,1.3636665E4,6.8548805E4,2.8350785E4,5.8550557E3,7.38349E3,8.661927E2,4.3040522E3,4.711462E3,2.6522705E4,1.3326779E3,1.9570143E2,8.7363477E2,3.601872E3,8.12864E3,3.9571677E3,1.1173414E4,1.4500535E3,8.482114E3,3.1140709E4,1.8966282E3,8.8472E3,1.3779355E2,1.7380598E2,4.196645E3,9.4400205E3,1.4344762E4,5.4204047E4,1.8880557E4,9.47023E3,4.516356E3,1.3386997E3,6.939989E3,4.4350162E2,1.5247536E2,7.1371735E2,4.0498518E3,2.542005E2,2.7977239E3,1.9137382E3,1.8883578E4,7.639127E3,7.5456024E2,5.781176E2,1.7376855E2,2.1932877E1,6.7266016E2,2.009746E2,2.850254E3,7.516182E2,7.685484E3,4.431562E2,3.8599612E3,9.720666E1,1.0360215E4,8.131997E2,5.188802E2,9.311733E2,4.0792773E3,4.4028364E3,2.5742992E4,5.3977153E3,2.7885587E2,1.6177723E3,9.481699E1,8.752383E3,9.8132256E1,3.96613E1,1.815119E1,1.556548E2,3.1347327E3,1.0619122E3,9.299567E3,1.4045291E2,1.0577288E3,1.3287033E4,1.6410078E4,3.779397E4,1.1958563E4,6.921992E3,8.437483E3,1.0327473E3,1.2142726E3,3.3020835E3,7.231491E1,1.2663848E3,5.1151377E3,1.8248507E3,1.3372607E2,3.0977554E2,1.2919618E2,2.3279167E1,3.489678E1,6.7882056E2,3.0686072E3,9.8124475E2,1.872118E1,2.3547932E2,5.7045074E2,2.2272732E3,7.714473E1,1.8365935E3,7.165388E3,1.171819E4,5.90172E3,1.7374066E3],"tree_param":{"num_deleted":"0","num_feature":"77","num_nodes":"127","size_leaf_vector":"1"}},{"base_weights":[-9.541139E-5,-1.1998491E-1,4.8824736E-1,2.4988893E-1,-2.7627355E-1,5.9238464E-1,-7.791668E-2,1.240933E-1,7.008273E-1,-1.588224E-1,-6.913679E-1,1.9538194E-1,6.668525E-1,7.991013E-1,-4.2969704E-1,-1.4628007E-2,5.008338E-1,-3.2037637E-1,7.541145E-1,-3.618904E-1,8.220104E-2,-7.461514E-1,8.089643E-1,7.1860135E-1,1.1379288E-2,5.4808533E-1,8.89402E-1,2.979987E-1,1.1040407E0,-6.437789E-1,5.356484E-1,-1.8381475E-1,4.638814E-1,-8.1879276E-1,5.449455E-1,3.5848084E-1,-1.5514956E0,1.0643725E0,5.934063E-1,-5.3469664E-1,3.7631653E-2,-2.0032557E-2,5.966191E-1,-8.225141E-1,3.4885645E-1,1.0106918E0,-8.972371E-2,1.0178096E0,-1.195904E-1,-2.048021E-1,6.818437E-1,-2.641406E-1,5.782485E-1,8.0300367E-1,1.1231892E0,-7.1540695E-1,8.1491166E-1,1.1599201E0,-9.817131E-2,-8.9647084E-1,2.3909968E-1,-1.0688883E0,7.551729E-1,-1.832305E-2,1.5435861E-2,4.4978134E-2,1.1125414E-2,-1.0322856E-1,1.7990739E-3,3.5760906E-2,1.1217738E-2,3.9995387E-2,-9.954605E-2,3.774982E-2,-1.0600126E-1,5.4753464E-2,-1.1098553E-1,-1.7199779E-3,3.534251E-2,-4.043294E-2,-1.3635235E-2,7.938848E-2,-8.496223E-4,-8.112964E-3,1.6992653E-2,-1.6211773E-3,3.4083795E-2,-4.279342E-2,3.572119E-2,-8.403935E-2,2.927736E-2,5.868866E-2,-4.5190353E-2,-1.052933E-1,5.4814797E-2,-7.691976E-2,3.809067E-2,-4.2399373E-2,5.165498E-3,4.9056333E-2,-3.5228361E-3,-9.360382E-2,1.51015315E-2,2.3951301E-2,4.1967373E-2,4.095696E-2,-1.0302045E-1,-1.1246323E-1,5.7010304E-2,6.020729E-2,-6.833826E-2,-3.867286E-2,5.4760706E-2,-5.200787E-3,6.2432993E-2,-5.3376205E-2,1.3102146E-2,9.395877E-2,-6.234299E-3,-8.73683E-2,7.809686E-2,-4.2063423E-2,4.76715E-2],"categories":[],"categories_nodes":[],"categories_segments":[],"categories_sizes":[],"default_left":[0,0,0,0,0,0,0,0,0,0,0,0,0,0,0,0,0,0,0,0,0,0,0,0,0,0,0,0,0,0,0,0,0,0,0,0,0,0,0,0,0,0,0,0,0,0,0,0,0,0,0,0,0,0,0,0,0,0,0,0,0,0,0,0,0,0,0,0,0,0,0,0,0,0,0,0,0,0,0,0,0,0,0,0,0,0,0,0,0,0,0,0,0,0,0,0,0,0,0,0,0,0,0,0,0,0,0,0,0,0,0,0,0,0,0,0,0,0,0,0,0,0,0],"id":11,"left_children":[1,3,5,7,9,11,13,15,17,19,21,23,25,27,29,31,33,35,37,39,41,43,45,47,49,51,53,55,57,59,61,63,65,67,69,71,73,75,77,79,81,83,85,87,89,91,-1,93,95,97,99,101,103,105,107,109,111,113,-1,115,117,119,121,-1,-1,-1,-1,-1,-1,-1,-1,-1,-1,-1,-1,-1,-1,-1,-1,-1,-1,-1,-1,-1,-1,-1,-1,-1,-1,-1,-1,-1,-1,-1,-1,-1,-1,-1,-1,-1,-1,-1,-1,-1,-1,-1,-1,-1,-1,-1,-1,-1,-1,-1,-1,-1,-1,-1,-1,-1,-1,-1,-1],"loss_changes":[1.4075445E4,1.115823E4,2.7939824E3,3.252327E3,6.61521E3,1.1831934E3,2.2719663E3,2.342952E3,6.807617E2,5.1766113E3,2.46029E3,6.087725E2,8.903506E2,3.218219E2,1.0865212E3,2.652809E3,7.027561E2,5.194703E2,5.920034E2,3.9630806E3,2.5434932E3,2.4144922E3,5.55724E2,4.1272607E2,6.7835767E2,5.3860645E2,2.3595117E2,4.191076E2,2.2687097E2,9.600292E2,3.370302E2,2.1778853E3,8.9992395E2,4.160647E2,6.3716626E2,4.1748956E2,2.9122937E2,4.1116992E2,5.5784033E2,2.8758877E3,1.4676777E3,2.065203E3,4.2902783E2,1.3842129E3,9.0552026E2,3.068761E2,0E0,2.9957446E2,5.4351227E2,7.0144617E2,2.5699304E2,7.1762415E2,5.4860986E2,3.9743506E2,1.840083E2,3.3973544E2,2.3661441E2,1.445343E2,0E0,6.631709E2,5.7189716E2,2.0852122E2,2.6674585E2,0E0,0E0,0E0,0E0,0E0,0E0,0E0,0E0,0E0,0E0,0E0,0E0,0E0,0E0,0E0,0E0,0E0,0E0,0E0,0E0,0E0,0E0,0E0,0E0,0E0,0E0,0E0,0E0,0E0,0E0,0E0,0E0,0E0,0E0,0E0,0E0,0E0,0E0,0E0,0E0,0E0,0E0,0E0,0E0,0E0,0E0,0E0,0E0,0E0,0E0,0E0,0E0,0E0,0E0,0E0,0E0,0E0,0E0,0E0,0E0],"parents":[2147483647,0,0,1,1,2,2,3,3,4,4,5,5,6,6,7,7,8,8,9,9,10,10,11,11,12,12,13,13,14,14,15,15,16,16,17,17,18,18,19,19,20,20,21,21,22,22,23,23,24,24,25,25,26,26,27,27,28,28,29,29,30,30,31,31,32,32,33,33,34,34,35,35,36,36,37,37,38,38,39,39,40,40,41,41,42,42,43,43,44,44,45,45,47,47,48,48,49,49,50,50,51,51,52,52,53,53,54,54,55,55,56,56,57,57,59,59,60,60,61,61,62,62],"right_children":[2,4,6,8,10,12,14,16,18,20,22,24,26,28,30,32,34,36,38,40,42,44,46,48,50,52,54,56,58,60,62,64,66,68,70,72,74,76,78,80,82,84,86,88,90,92,-1,94,96,98,100,102,104,106,108,110,112,114,-1,116,118,120,122,-1,-1,-1,-1,-1,-1,-1,-1,-1,-1,-1,-1,-1,-1,-1,-1,-1,-1,-1,-1,-1,-1,-1,-1,-1,-1,-1,-1,-1,-1,-1,-1,-1,-1,-1,-1,-1,-1,-1,-1,-1,-1,-1,-1,-1,-1,-1,-1,-1,-1,-1,-1,-1,-1,-1,-1,-1,-1,-1,-1],"split_conditions":[3.772E1,3.5620752E2,1E0,2.5E0,1E0,1.6125E1,1.035E2,2.25E1,8.6E1,1.888673E1,4.12E2,8E1,3.833E1,2.05E0,2.5166666E1,4.14E1,1.6E0,6.183E1,9.4E0,7.39E0,1E0,3.39E2,6.249054E1,1.1E1,1.5933194E1,7.3E0,3E0,2.5E-1,1.3933333E2,1.115E2,9.15E1,9.7E1,-2.5E0,3.7026737E1,1E0,3.24E1,4.4E1,3.7E1,3.6415E1,8.1833336E1,3.543667E1,1.8973666E0,4.9159604E-1,2.9693365E1,5.713E1,1.11E3,-8.972371E-2,2.2E0,6.386E1,1.891472E-1,4.05E0,1.24E2,1.095E2,1.5E1,3.2E0,7E1,1.45E2,1.05E2,-9.817131E-2,3.856E1,6.172167E1,8.369E1,1.03E2,-1.832305E-2,1.5435861E-2,4.4978134E-2,1.1125414E-2,-1.0322856E-1,1.7990739E-3,3.5760906E-2,1.1217738E-2,3.9995387E-2,-9.954605E-2,3.774982E-2,-1.0600126E-1,5.4753464E-2,-1.1098553E-1,-1.7199779E-3,3.534251E-2,-4.043294E-2,-1.3635235E-2,7.938848E-2,-8.496223E-4,-8.112964E-3,1.6992653E-2,-1.6211773E-3,3.4083795E-2,-4.279342E-2,3.572119E-2,-8.403935E-2,2.927736E-2,5.868866E-2,-4.5190353E-2,-1.052933E-1,5.4814797E-2,-7.691976E-2,3.809067E-2,-4.2399373E-2,5.165498E-3,4.9056333E-2,-3.5228361E-3,-9.360382E-2,1.51015315E-2,2.3951301E-2,4.1967373E-2,4.095696E-2,-1.0302045E-1,-1.1246323E-1,5.7010304E-2,6.020729E-2,-6.833826E-2,-3.867286E-2,5.4760706E-2,-5.200787E-3,6.2432993E-2,-5.3376205E-2,1.3102146E-2,9.395877E-2,-6.234299E-3,-8.73683E-2,7.809686E-2,-4.2063423E-2,4.76715E-2],"split_indices":[2,13,36,7,36,49,17,49,20,49,13,13,2,22,49,29,22,33,28,10,53,32,47,28,44,16,7,7,43,17,12,0,7,41,25,27,15,8,41,37,41,40,40,49,33,13,0,23,33,42,24,20,17,28,24,37,32,32,0,2,45,33,20,0,0,0,0,0,0,0,0,0,0,0,0,0,0,0,0,0,0,0,0,0,0,0,0,0,0,0,0,0,0,0,0,0,0,0,0,0,0,0,0,0,0,0,0,0,0,0,0,0,0,0,0,0,0,0,0,0,0,0,0],"split_type":[0,0,0,0,0,0,0,0,0,0,0,0,0,0,0,0,0,0,0,0,0,0,0,0,0,0,0,0,0,0,0,0,0,0,0,0,0,0,0,0,0,0,0,0,0,0,0,0,0,0,0,0,0,0,0,0,0,0,0,0,0,0,0,0,0,0,0,0,0,0,0,0,0,0,0,0,0,0,0,0,0,0,0,0,0,0,0,0,0,0,0,0,0,0,0,0,0,0,0,0,0,0,0,0,0,0,0,0,0,0,0,0,0,0,0,0,0,0,0,0,0,0,0],"sum_hessian":[2.4041006E5,1.9302311E5,4.7386953E4,5.7334438E4,1.3568867E5,4.002493E4,7.3620225E3,4.4829805E4,1.2504632E4,1.0576407E5,2.9924611E4,6.322433E3,3.3702496E4,2.1072356E3,5.2547866E3,3.276589E4,1.2063914E4,6.198933E2,1.1884738E4,5.740146E4,4.8362605E4,2.8870916E4,1.0536954E3,1.6441934E3,4.6782397E3,2.1977377E4,1.1725118E4,7.9795123E2,1.3092844E3,4.301245E3,9.5354156E2,2.4207465E4,8.558426E3,3.8965298E2,1.1674261E4,4.0002335E2,2.1986993E2,4.0535205E3,7.831218E3,4.0069688E4,1.7331775E4,4.0345457E4,8.0171494E3,2.6989027E4,1.8818895E3,9.7848895E2,7.5206436E1,1.2115084E3,4.3268497E2,3.5381196E3,1.14012E3,7.8665894E2,2.1190719E4,8.56447E3,3.1606484E3,2.6940326E2,5.28548E2,1.2864708E3,2.2813501E1,3.344102E3,9.571433E2,1.1429241E2,8.3924915E2,1.7659154E4,6.54831E3,3.050148E3,5.508278E3,1.5798488E2,2.3166812E2,7.6238438E3,4.0504172E3,3.3730664E2,6.2716705E1,4.3413975E1,1.7645596E2,4.0166428E3,3.687754E1,1.1986282E3,6.63259E3,1.958636E4,2.0483328E4,5.8899664E2,1.6742777E4,2.8917725E4,1.142773E4,9.5500073E2,7.062149E3,2.6416191E4,5.72835E2,1.9590306E2,1.6859865E3,9.0203815E2,7.6450806E1,2.906146E1,1.1824469E3,1.6551245E2,2.6717252E2,1.1453804E3,2.3927393E3,8.154218E2,3.246982E2,2.0425754E2,5.8240137E2,1.5357439E4,5.83328E3,8.517189E3,4.7280987E1,1.5209581E1,3.145439E3,6.8040184E1,2.0136308E2,7.90188E1,4.4952917E2,8.438519E1,1.2020857E3,2.9139404E3,4.301615E2,1.7300578E2,7.841375E2,9.112699E1,2.316542E1,9.235206E1,7.468971E2],"tree_param":{"num_deleted":"0","num_feature":"77","num_nodes":"123","size_leaf_vector":"1"}},{"base_weights":[3.2785633E-3,3.5871586E-1,-2.1985543E-1,2.2169599E-1,6.647502E-1,-3.8955462E-1,8.300876E-2,4.8964873E-1,6.036787E-2,5.1138633E-1,8.586259E-1,-4.780182E-1,2.5754413E-1,7.299477E-1,-1.2510607E-2,1.9920638E-1,6.449554E-1,-3.595223E-1,1.8200558E-1,5.743891E-2,5.973417E-1,2.6111996E-1,9.114009E-1,-3.265742E-1,-8.525149E-1,3.0096054E-1,-1.5807132E0,-5.8819604E-1,8.097763E-1,-1.6067435E-1,3.4033474E-1,2.4466352E-1,-1.4141212E0,5.692081E-1,1.0590564E0,5.1084748E-3,-8.397151E-1,1.1803224E-1,6.966358E-1,9.3451184E-1,-4.3761218E-1,7.632174E-1,4.3781927E-1,-1.5351728E0,4.476902E-1,9.1752285E-1,-1.1611264E-1,-3.9328182E-1,2.3999737E-1,-1.0899392E0,-3.883911E-1,-4.982936E-1,3.924744E-1,1.59002E0,-9.5321245E-2,1.25456E0,-1.1670536E0,-9.023331E-2,8.4009856E-1,-6.304339E-1,-5.764865E-2,5.040552E-1,6.0632166E-2,5.4659005E-3,3.4682892E-2,-9.640508E-2,7.1611874E-2,2.9488651E-2,-6.9267236E-2,5.503426E-2,-1.1011132E-1,6.7419335E-2,-7.6427604E-3,1.0406295E-1,-4.481676E-2,-1.0013917E-2,1.2385673E-2,3.795733E-2,-9.9251136E-2,5.1659692E-2,-8.756444E-2,-3.4770414E-2,6.989433E-2,2.491889E-2,4.616135E-2,1.8048584E-2,5.6357708E-2,-9.3979314E-2,6.741859E-2,-1.2494292E-1,2.8890258E-2,3.9173424E-2,5.259511E-2,-7.3528453E-3,-2.6919423E-2,5.474956E-2,1.8788975E-3,-1.3640855E-2,-5.9307456E-2,1.0501065E-1,-2.2008972E-2,4.7133636E-2,-4.813937E-2,1.0061739E-2,3.8367298E-2,9.129686E-2,-6.431457E-2,8.72758E-2,-8.122651E-2,-6.9045134E-2,7.508095E-2,3.1569894E-2,5.7404157E-2,2.3977146E-2,-4.4073384E-2,5.0747083E-3,-2.062677E-2,1.9185757E-2,5.156007E-2,-2.216791E-2,1.27958795E-2],"categories":[],"categories_nodes":[],"categories_segments":[],"categories_sizes":[],"default_left":[0,0,0,0,0,0,0,0,0,0,0,0,0,0,0,0,0,0,0,0,0,0,0,0,0,0,0,0,0,0,0,0,0,0,0,0,0,0,0,0,0,0,0,0,0,0,0,0,0,0,0,0,0,0,0,0,0,0,0,0,0,0,0,0,0,0,0,0,0,0,0,0,0,0,0,0,0,0,0,0,0,0,0,0,0,0,0,0,0,0,0,0,0,0,0,0,0,0,0,0,0,0,0,0,0,0,0,0,0,0,0,0,0,0,0,0,0,0,0,0,0],"id":12,"left_children":[1,3,5,7,9,11,13,15,17,19,21,23,25,27,29,31,33,35,37,39,41,43,45,47,49,51,53,55,57,59,61,63,65,67,69,71,73,75,77,79,81,83,85,87,89,91,-1,93,95,97,99,101,103,105,-1,107,109,-1,111,113,115,117,119,-1,-1,-1,-1,-1,-1,-1,-1,-1,-1,-1,-1,-1,-1,-1,-1,-1,-1,-1,-1,-1,-1,-1,-1,-1,-1,-1,-1,-1,-1,-1,-1,-1,-1,-1,-1,-1,-1,-1,-1,-1,-1,-1,-1,-1,-1,-1,-1,-1,-1,-1,-1,-1,-1,-1,-1,-1,-1],"loss_changes":[1.9028238E4,3.8798604E3,7.5754014E3,2.7629045E3,8.5039355E2,5.407661E3,3.2708335E3,1.0833452E3,2.037742E3,6.2346826E2,3.982461E2,4.7129395E3,9.0724066E2,7.170232E2,2.411233E3,6.142036E2,4.903037E2,1.5691528E3,1.0183916E3,1.1054828E3,3.5517383E2,3.4486353E2,2.3198145E2,2.236605E3,2.6363984E3,8.1209296E2,2.7392688E2,4.1686658E2,5.1056104E2,1.5720343E3,6.2457935E2,4.9469684E2,3.385536E2,5.3269775E2,3.3082617E2,1.081273E3,6.41572E2,1.1358887E3,5.74839E2,2.4526776E2,7.710952E2,2.7859692E2,3.6252283E2,9.872473E1,3.584273E2,2.0795508E2,0E0,1.8914902E3,1.0788542E3,1.2441602E3,1.0448279E3,7.6448517E2,7.139053E2,1.9299706E1,0E0,1.3509818E2,1.7148941E2,0E0,4.0731982E2,1.6283801E3,1.5046709E3,5.453899E2,4.9588806E2,0E0,0E0,0E0,0E0,0E0,0E0,0E0,0E0,0E0,0E0,0E0,0E0,0E0,0E0,0E0,0E0,0E0,0E0,0E0,0E0,0E0,0E0,0E0,0E0,0E0,0E0,0E0,0E0,0E0,0E0,0E0,0E0,0E0,0E0,0E0,0E0,0E0,0E0,0E0,0E0,0E0,0E0,0E0,0E0,0E0,0E0,0E0,0E0,0E0,0E0,0E0,0E0,0E0,0E0,0E0,0E0,0E0,0E0],"parents":[2147483647,0,0,1,1,2,2,3,3,4,4,5,5,6,6,7,7,8,8,9,9,10,10,11,11,12,12,13,13,14,14,15,15,16,16,17,17,18,18,19,19,20,20,21,21,22,22,23,23,24,24,25,25,26,26,27,27,28,28,29,29,30,30,31,31,32,32,33,33,34,34,35,35,36,36,37,37,38,38,39,39,40,40,41,41,42,42,43,43,44,44,45,45,47,47,48,48,49,49,50,50,51,51,52,52,53,53,55,55,56,56,58,58,59,59,60,60,61,61,62,62],"right_children":[2,4,6,8,10,12,14,16,18,20,22,24,26,28,30,32,34,36,38,40,42,44,46,48,50,52,54,56,58,60,62,64,66,68,70,72,74,76,78,80,82,84,86,88,90,92,-1,94,96,98,100,102,104,106,-1,108,110,-1,112,114,116,118,120,-1,-1,-1,-1,-1,-1,-1,-1,-1,-1,-1,-1,-1,-1,-1,-1,-1,-1,-1,-1,-1,-1,-1,-1,-1,-1,-1,-1,-1,-1,-1,-1,-1,-1,-1,-1,-1,-1,-1,-1,-1,-1,-1,-1,-1,-1,-1,-1,-1,-1,-1,-1,-1,-1,-1,-1,-1,-1],"split_conditions":[2.4E0,3.761E1,2.025E1,1.8E0,3.811E1,2.6E0,9.831921E-1,1.7954693E1,5.071006E-1,5.071006E-1,4.082483E-1,1.1E1,1.38E1,5.071006E-1,2.5583334E1,8.413E1,1.3044795E1,1.065E2,3.05E2,1.035E2,1.02E1,1.425E1,2.44E2,3.783E1,1.32E1,1.3333333E1,1.14E2,7.9E0,9.0416664E1,5.071006E-1,4.0331955E0,1.5025534E1,8.858E1,9.8E0,1.57E2,7.4E1,5.4E1,1.65E1,4.12E2,4.65E0,2.9693365E1,8.803408E-1,2.19E1,3.05E0,2.41E1,3.4598652E-1,-1.1611264E-1,7.2386665E1,6.5E0,6E-1,3.483E1,4.7E1,1E2,3.66E1,-9.5321245E-2,7.8166664E1,3.856E1,-9.023331E-2,3.72E1,2.1E0,2.22E2,7.2E1,3.95E0,5.4659005E-3,3.4682892E-2,-9.640508E-2,7.1611874E-2,2.9488651E-2,-6.9267236E-2,5.503426E-2,-1.1011132E-1,6.7419335E-2,-7.6427604E-3,1.0406295E-1,-4.481676E-2,-1.0013917E-2,1.2385673E-2,3.795733E-2,-9.9251136E-2,5.1659692E-2,-8.756444E-2,-3.4770414E-2,6.989433E-2,2.491889E-2,4.616135E-2,1.8048584E-2,5.6357708E-2,-9.3979314E-2,6.741859E-2,-1.2494292E-1,2.8890258E-2,3.9173424E-2,5.259511E-2,-7.3528453E-3,-2.6919423E-2,5.474956E-2,1.8788975E-3,-1.3640855E-2,-5.9307456E-2,1.0501065E-1,-2.2008972E-2,4.7133636E-2,-4.813937E-2,1.0061739E-2,3.8367298E-2,9.129686E-2,-6.431457E-2,8.72758E-2,-8.122651E-2,-6.9045134E-2,7.508095E-2,3.1569894E-2,5.7404157E-2,2.3977146E-2,-4.4073384E-2,5.0747083E-3,-2.062677E-2,1.9185757E-2,5.156007E-2,-2.216791E-2,1.27958795E-2],"split_indices":[21,2,49,25,2,21,44,49,35,35,40,28,28,35,49,33,46,17,31,17,28,6,20,2,30,49,31,16,43,35,50,44,33,16,43,32,20,49,13,24,49,40,30,22,29,42,0,45,30,25,2,13,0,2,0,37,2,0,2,25,32,5,24,0,0,0,0,0,0,0,0,0,0,0,0,0,0,0,0,0,0,0,0,0,0,0,0,0,0,0,0,0,0,0,0,0,0,0,0,0,0,0,0,0,0,0,0,0,0,0,0,0,0,0,0,0,0,0,0,0,0],"split_type":[0,0,0,0,0,0,0,0,0,0,0,0,0,0,0,0,0,0,0,0,0,0,0,0,0,0,0,0,0,0,0,0,0,0,0,0,0,0,0,0,0,0,0,0,0,0,0,0,0,0,0,0,0,0,0,0,0,0,0,0,0,0,0,0,0,0,0,0,0,0,0,0,0,0,0,0,0,0,0,0,0,0,0,0,0,0,0,0,0,0,0,0,0,0,0,0,0,0,0,0,0,0,0,0,0,0,0,0,0,0,0,0,0,0,0,0,0,0,0,0,0],"sum_hessian":[2.399199E5,9.252819E4,1.4739172E5,6.3913918E4,2.8614266E4,9.446264E4,5.2929074E4,